{"learner":{"attributes":{"scikit_learn":"{\"_estimator_type\": \"classifier\"}"},"feature_names":[],"feature_types":[],"gradient_booster":{"model":{"cats":{"enc":[],"feature_segments":[],"sorted_idx":[]},"gbtree_model_param":{"num_parallel_tree":"1","num_trees":"100"},"iteration_indptr":[0,1,2,3,4,5,6,7,8,9,10,11,12,13,14,15,16,17,18,19,20,21,22,23,24,25,26,27,28,29,30,31,32,33,34,35,36,37,38,39,40,41,42,43,44,45,46,47,48,49,50,51,52,53,54,55,56,57,58,59,60,61,62,63,64,65,66,67,68,69,70,71,72,73,74,75,76,77,78,79,80,81,82,83,84,85,86,87,88,89,90,91,92,93,94,95,96,97,98,99,100],"tree_info":[0,0,0,0,0,0,0,0,0,0,0,0,0,0,0,0,0,0,0,0,0,0,0,0,0,0,0,0,0,0,0,0,0,0,0,0,0,0,0,0,0,0,0,0,0,0,0,0,0,0,0,0,0,0,0,0,0,0,0,0,0,0,0,0,0,0,0,0,0,0,0,0,0,0,0,0,0,0,0,0,0,0,0,0,0,0,0,0,0,0,0,0,0,0,0,0,0,0,0,0],"trees":[{"base_weights":[1.3431612E-8,-3.1860697E-1,1.4313463E2,3.476637E1,-6.575429E-1,-7.1381474E-1,8.060238E1,1.8435931E2,-2.7485684E-1,-7.7738416E-1,3.4079726E0,-1.9365716E-3,-2.5003907E-1,2.285519E2,-2.0056999E-1,2.9130074E-1,-2.8644434E-1,-9.199664E-1,5.7204846E-2,2.8209763E1,-2.9872367E-1,7.90348E1,-1.6160108E-2,3.5523205E0,-5.744719E-1,-5.151283E-1,-2.9944322E-1,7.08755E-1,-2.999108E-1,-5.78651E-1,7.783398E1,1.9430421E-1,2.2370956E0,-2.246783E-1,3.4685397E-1,-2.5417066E-1,2.0403965E-1,5.475654E0,1.4728206E-1,7.4434155E-1,-2.814714E-1,1.0069504E1,4.6518513E1],"categories":[],"categories_nodes":[],"categories_segments":[],"categories_sizes":[],"default_left":[0,0,0,0,0,0,0,0,0,0,0,0,0,0,0,0,0,0,0,0,0,0,0,0,0,0,0,0,0,0,0,0,0,0,0,0,0,0,0,0,0,0,0],"id":0,"left_children":[1,3,5,7,9,11,-1,13,15,17,19,-1,-1,21,-1,23,-1,25,27,29,-1,-1,-1,31,33,35,-1,37,-1,39,41,-1,-1,-1,-1,-1,-1,-1,-1,-1,-1,-1,-1],"loss_changes":[2.6126297E5,6.7998125E4,2.2997052E5,2.868453E5,2.7615383E3,5.808811E-1,0E0,8.507019E4,1.772723E1,6.5468555E2,1.7757156E4,0E0,0E0,6.691403E4,0E0,7.403282E1,0E0,1.4819238E2,5.5412E2,3.5060027E4,0E0,0E0,0E0,5.742198E1,7.209425E0,3.0327286E2,0E0,1.8930314E3,0E0,2.048659E1,2.5584887E4,0E0,0E0,0E0,0E0,0E0,0E0,0E0,0E0,0E0,0E0,0E0,0E0],"parents":[2147483647,0,0,1,1,2,2,3,3,4,4,5,5,7,7,8,8,9,9,10,10,13,13,15,15,17,17,18,18,19,19,23,23,24,24,25,25,27,27,29,29,30,30],"right_children":[2,4,6,8,10,12,-1,14,16,18,20,-1,-1,22,-1,24,-1,26,28,30,-1,-1,-1,32,34,36,-1,38,-1,40,42,-1,-1,-1,-1,-1,-1,-1,-1,-1,-1,-1,-1],"split_conditions":[1.7535998E-2,2.5130716E-5,1.0869441E-2,1E0,5.483004E-3,9.2132745E-5,8.060238E1,5.6541858E-6,5.5456244E-6,9.3416066E-4,5.5456244E-6,-1.9365716E-3,-2.5003907E-1,5.5456244E-6,-2.0056999E-1,8.945658E-5,-2.8644434E-1,5.9644534E-4,5.5456244E-6,1E0,-2.9872367E-1,7.90348E1,-1.6160108E-2,1.7504393E-5,1.3891574E-3,2.0594096E-4,-2.9944322E-1,8.016216E-4,-2.999108E-1,1.9401764E-3,8.059753E-3,1.9430421E-1,2.2370956E0,-2.246783E-1,3.4685397E-1,-2.5417066E-1,2.0403965E-1,5.475654E0,1.4728206E-1,7.4434155E-1,-2.814714E-1,1.0069504E1,4.6518513E1],"split_indices":[1,4,0,5,1,3,0,3,2,1,2,0,0,2,0,0,0,0,2,5,0,0,0,1,1,1,0,0,0,4,1,0,0,0,0,0,0,0,0,0,0,0,0],"split_type":[0,0,0,0,0,0,0,0,0,0,0,0,0,0,0,0,0,0,0,0,0,0,0,0,0,0,0,0,0,0,0,0,0,0,0,0,0,0,0,0,0,0,0],"sum_hessian":[5.7269863E3,5.715262E3,1.1723972E1,5.3711742E1,5.661551E3,5.926955E0,5.797017E0,9.385084E0,4.4326656E1,5.5002266E3,1.6132422E2,1.0099745E0,4.9169807E0,7.3858075E0,1.9992769E0,2.4499264E1,1.9827393E1,4.697583E3,8.0264325E2,2.350996E1,1.3781427E2,6.275426E0,1.1103812E0,4.4887753E0,2.0010489E1,7.615473E2,3.936036E3,4.9674503E2,3.0589822E2,1.5503994E1,8.005967E0,3.2425497E0,1.2462258E0,1.8693386E1,1.3171012E0,5.9618616E2,1.6536118E2,5.0764503E0,4.9166855E2,1.0099745E0,1.44940195E1,6.000784E0,2.0051832E0],"tree_param":{"num_deleted":"0","num_feature":"7","num_nodes":"43","size_leaf_vector":"1"}},{"base_weights":[-1.2609493E0,-8.414788E-1,-1.473556E1,-9.5264125E-1,4.835188E-1,-4.8121086E1,-1.7319205E0,-4.3511033E0,-9.1777486E-1,1.5539021E0,-2.9876354E-1,-4.2700896E0,-6.762799E1,-9.7457016E-1,-1.2414576E1,-5.551416E1,-2.8569818E-1,-4.9280512E-1,-1.004042E0,2.1391953E1,1.1012005E0,-1.0027168E0,-5.540765E0,-1.6613297E1,-8.4502975E1,5.120407E-2,-2.9785517E-1,-2.7067993E1,-1.6950813E-1,1.2329338E0,-4.13512E-1,-9.487248E-1,5.9447646E-2,-1.0544773E0,-3.239844E-1,7.6370444E0,2.603661E0,3.2325506E0,-1.097341E0,1.5273593E-1,-1.2788024E0,-1.8963469E1,-3.863584E1,8.982015E-1,-1.8398705E-1,-2.554441E-1,-1.0037407E-2,2.8945348E-1,-2.977032E-1,2.973032E-1,-2.9905975E-1,-2.9889905E-1,-4.1052458E-1,7.825117E-1,-2.9245454E-1,6.899835E-1,8.673815E0,-1.7860771E0,-2.9817772E-1,-7.413738E-1,-2.700497E-1],"categories":[],"categories_nodes":[],"categories_segments":[],"categories_sizes":[],"default_left":[0,0,0,0,0,0,0,0,0,0,0,0,0,0,0,0,0,0,0,0,0,0,0,0,0,0,0,0,0,0,0,0,0,0,0,0,0,0,0,0,0,0,0,0,0,0,0,0,0,0,0,0,0,0,0,0,0,0,0,0,0],"id":1,"left_children":[1,3,5,7,9,11,13,15,17,19,-1,21,23,25,-1,27,29,31,33,35,37,39,-1,-1,41,-1,-1,-1,-1,43,45,47,49,51,53,-1,-1,55,57,-1,59,-1,-1,-1,-1,-1,-1,-1,-1,-1,-1,-1,-1,-1,-1,-1,-1,-1,-1,-1,-1],"loss_changes":[2.8248137E4,7.1482104E2,6.542297E4,5.2625464E2,5.970592E2,3.585993E4,3.2517517E3,9.380925E3,1.6194165E2,1.9395139E3,0E0,6.346339E2,1.352875E3,2.4430618E0,0E0,6.282323E3,8.828433E0,1.8879868E2,1.2595264E2,2.8279297E1,1.0099048E3,5.869466E0,0E0,0E0,1.6388984E3,0E0,0E0,0E0,0E0,1.3469895E1,6.6759615E0,3.5236694E1,3.35495E2,6.1203857E1,4.9050647E2,0E0,0E0,2.5512302E3,4.7549133E1,0E0,2.6771927E0,0E0,0E0,0E0,0E0,0E0,0E0,0E0,0E0,0E0,0E0,0E0,0E0,0E0,0E0,0E0,0E0,0E0,0E0,0E0,0E0],"parents":[2147483647,0,0,1,1,2,2,3,3,4,4,5,5,6,6,7,7,8,8,9,9,11,11,12,12,13,13,15,15,16,16,17,17,18,18,19,19,20,20,21,21,24,24,29,29,30,30,31,31,32,32,33,33,34,34,37,37,38,38,40,40],"right_children":[2,4,6,8,10,12,14,16,18,20,-1,22,24,26,-1,28,30,32,34,36,38,40,-1,-1,42,-1,-1,-1,-1,44,46,48,50,52,54,-1,-1,56,58,-1,60,-1,-1,-1,-1,-1,-1,-1,-1,-1,-1,-1,-1,-1,-1,-1,-1,-1,-1,-1,-1],"split_conditions":[5.483004E-3,1.8922199E-3,5.5456244E-6,2.5130716E-5,5.5456244E-6,1E0,6.38301E-3,1E0,6.2344864E-4,1.4708455E-3,-2.9876354E-1,1.0807813E-2,5.187868E-3,2.5130716E-5,-1.2414576E1,2.3623496E-5,1.48177005E-5,2.0156065E-5,1.2127373E-3,1.3960912E-3,3.535115E-3,5.543128E-3,-5.540765E0,-1.6613297E1,7.544853E-3,5.120407E-2,-2.9785517E-1,-2.7067993E1,-1.6950813E-1,2.5677586E-5,6.557015E-5,1.48177005E-5,5.5456244E-6,9.3416066E-4,1.1909788E-3,7.6370444E0,2.603661E0,4.528402E-3,7.500703E-4,1.5273593E-1,1.8866499E-3,-1.8963469E1,-3.863584E1,8.982015E-1,-1.8398705E-1,-2.554441E-1,-1.0037407E-2,2.8945348E-1,-2.977032E-1,2.973032E-1,-2.9905975E-1,-2.9889905E-1,-4.1052458E-1,7.825117E-1,-2.9245454E-1,6.899835E-1,8.673815E0,-1.7860771E0,-2.9817772E-1,-7.413738E-1,-2.700497E-1],"split_indices":[1,1,2,4,2,5,0,5,0,0,0,1,0,4,0,3,0,1,1,0,0,0,0,0,1,0,0,0,0,1,1,0,2,1,0,0,0,1,4,0,4,0,0,0,0,0,0,0,0,0,0,0,0,0,0,0,0,0,0,0,0],"split_type":[0,0,0,0,0,0,0,0,0,0,0,0,0,0,0,0,0,0,0,0,0,0,0,0,0,0,0,0,0,0,0,0,0,0,0,0,0,0,0,0,0,0,0,0,0,0,0,0,0,0,0,0,0,0,0,0,0,0,0,0,0],"sum_hessian":[4.998916E3,4.8490264E3,1.4988985E2,4.4739585E3,3.7506778E2,4.1259552E1,1.08630295E2,4.4177166E1,4.4297812E3,2.1758725E2,1.5748053E2,1.307845E1,2.81811E1,1.07599625E2,1.0306697E0,2.3203497E0,4.185682E1,7.4862305E2,3.6811582E3,3.8225722E0,2.1376468E2,1.1502271E1,1.5761794E0,1.8808657E1,9.372444E0,1.5595301E0,1.0604009E2,1.0285751E0,1.2917746E0,2.578135E0,3.9278683E1,4.0968457E2,3.389385E2,3.4264878E3,2.5467043E2,2.1369095E0,1.6856629E0,1.0830213E2,1.0546254E2,1.6458082E0,9.8564625E0,7.9685783E0,1.4038655E0,1.0013136E0,1.5768214E0,1.7672615E1,2.1606068E1,8.659821E0,4.0102475E2,1.8013725E2,1.5880125E2,2.8945383E3,5.3194946E2,4.5712593E1,2.0895784E2,1.0555822E2,2.743911E0,1.0194759E0,1.0444307E2,1.0434922E0,8.812971E0],"tree_param":{"num_deleted":"0","num_feature":"7","num_nodes":"61","size_leaf_vector":"1"}},{"base_weights":[-1.0669299E0,-1.0362731E0,-3.0252464E1,-9.2833614E-1,-2.9405339E0,-2.1211351E-1,-1.953552E1,-4.769253E0,-8.84817E-1,-1.0332673E1,-1.1828802E-1,-2.6261587E1,-3.4055975E-1,-9.753272E-1,3.0750528E-1,-1.4312701E1,-2.8525084E-1,2.8571198E0,-1.5710053E0,1.3902546E-1,-8.2091236E-1,-8.6457336E-1,-3.1996658E0,1.026169E0,-2.9836863E-1,-1.78995E1,-2.7160862E-1,-1.720478E0,1.7985258E1,-3.3300378E0,-1.4033143E-1,-7.903347E-2,1.1879958E0,-2.7113688E-1,9.211824E-3,-1.2222408E-1,-2.8848282E-1,-1.7516665E0,-2.6608104E-1,7.661937E-1,-2.966792E-1,-1.9780543E0,-5.4769216E0,-2.8824787E0,-2.930145E-1,-2.690818E-1,1.6740993E1,-5.811075E-1,-1.9595155E0,-1.8748382E-1,2.1861699E-1],"categories":[],"categories_nodes":[],"categories_segments":[],"categories_sizes":[],"default_left":[0,0,0,0,0,0,0,0,0,0,0,0,0,0,0,0,0,0,0,0,0,0,0,0,0,0,0,0,0,0,0,0,0,0,0,0,0,0,0,0,0,0,0,0,0,0,0,0,0,0,0],"id":2,"left_children":[1,3,5,7,9,-1,-1,11,13,15,17,-1,19,21,23,25,-1,27,29,31,33,35,37,39,-1,41,-1,43,45,47,49,-1,-1,-1,-1,-1,-1,-1,-1,-1,-1,-1,-1,-1,-1,-1,-1,-1,-1,-1,-1],"loss_changes":[3.7593447E3,8.6737354E2,4.4969326E3,6.6566943E2,4.726537E3,0E0,0E0,1.6345018E4,4.2808008E2,2.3239727E3,7.1774615E2,0E0,1.0113728E1,9.049321E2,2.6343964E2,2.094168E3,0E0,3.8044055E3,2.801923E2,3.5760933E1,1.5685635E0,1.5536572E2,1.0592488E3,5.6036414E2,0E0,1.911621E1,0E0,2.4138394E2,9.151258E3,2.1024591E2,2.679703E1,0E0,0E0,0E0,0E0,0E0,0E0,0E0,0E0,0E0,0E0,0E0,0E0,0E0,0E0,0E0,0E0,0E0,0E0,0E0,0E0],"parents":[2147483647,0,0,1,1,2,2,3,3,4,4,7,7,8,8,9,9,10,10,12,12,13,13,14,14,15,15,17,17,18,18,19,19,20,20,21,21,22,22,23,23,25,25,27,27,28,28,29,29,30,30],"right_children":[2,4,6,8,10,-1,-1,12,14,16,18,-1,20,22,24,26,-1,28,30,32,34,36,38,40,-1,42,-1,44,46,48,50,-1,-1,-1,-1,-1,-1,-1,-1,-1,-1,-1,-1,-1,-1,-1,-1,-1,-1,-1,-1],"split_conditions":[1.7535998E-2,4.528402E-3,2.9233065E-3,2.5130716E-5,5.2477117E-3,-2.1211351E-1,-1.953552E1,1E0,2.2329765E-3,5.5456244E-6,8.059753E-3,-2.6261587E1,1.4295535E-4,1.8922199E-3,2.9233065E-3,3.535115E-3,-2.8525084E-1,3.535115E-3,9.871152E-3,1.03465565E-4,2.389391E-3,5.8248546E-4,1.3960912E-3,5.5456244E-6,-2.9836863E-1,3.0067754E-3,-2.7160862E-1,5.5456244E-6,1E0,6.1787795E-3,8.177026E-3,-7.903347E-2,1.1879958E0,-2.7113688E-1,9.211824E-3,-1.2222408E-1,-2.8848282E-1,-1.7516665E0,-2.6608104E-1,7.661937E-1,-2.966792E-1,-1.9780543E0,-5.4769216E0,-2.8824787E0,-2.930145E-1,-2.690818E-1,1.6740993E1,-5.811075E-1,-1.9595155E0,-1.8748382E-1,2.1861699E-1],"split_indices":[1,1,0,4,1,0,0,5,1,2,1,0,1,1,0,0,0,0,1,1,1,0,0,2,0,0,0,2,5,0,0,0,0,0,0,0,0,0,0,0,0,0,0,0,0,0,0,0,0,0,0],"split_type":[0,0,0,0,0,0,0,0,0,0,0,0,0,0,0,0,0,0,0,0,0,0,0,0,0,0,0,0,0,0,0,0,0,0,0,0,0,0,0,0,0,0,0,0,0,0,0,0,0,0,0],"sum_hessian":[4.235662E3,4.232252E3,3.4101024E0,4.0066362E3,2.2561589E2,2.3981702E0,1.011932E0,4.36716E1,3.9629646E3,6.1602642E1,1.6401324E2,1.2649157E0,4.2406685E1,3.683527E3,2.7943762E2,4.288436E1,1.8718279E1,5.3490017E1,1.1052324E2,2.1575865E1,2.0830818E1,3.5101396E3,1.7338751E2,1.8019345E2,9.924416E1,3.3568813E1,9.315548E0,4.17448E1,1.1745216E1,4.897734E1,6.1545895E1,2.036213E1,1.2137362E0,1.8927578E1,1.9032403E0,6.155122E2,2.8946274E3,8.026577E1,9.312174E1,1.02336464E2,7.785698E1,1.623207E0,3.1945608E1,2.5700777E0,3.9174725E1,8.485012E0,3.2602038E0,3.5246857E1,1.3730486E1,3.969275E1,2.1853144E1],"tree_param":{"num_deleted":"0","num_feature":"7","num_nodes":"51","size_leaf_vector":"1"}},{"base_weights":[-1.7257977E0,-7.9692596E-1,-1.4468963E1,-5.1417794E0,-7.45142E-1,-2.6932928E1,-1.8856727E0,-3.8907807E0,-1.8800522E1,-8.5576874E-1,7.1438854E-3,-8.8841045E-1,-4.051534E1,-8.569616E-1,-1.3457665E1,-5.5329623E0,-5.917308E-1,-8.355755E0,-1.5495294E-1,-3.679436E-1,-9.83705E-1,2.1771936E-1,-3.0291218E-1,-5.122119E-1,-1.0465897E0,-1.8568098E2,-1.7184975E1,-1.9561325E0,-2.3184589E-1,-2.9020224E0,-1.4960728E1,-4.0726885E-2,-9.180866E-1,-9.176218E-1,9.98514E-2,-9.314626E-1,-1.5011855E0,5.181287E-1,-2.9626158E-1,2.3442888E-1,-2.7073133E-1,-3.189582E-1,-8.879468E-2,-3.334911E1,-1.05219025E2,-2.1932507E1,-9.256411E0,-7.3067844E-1,-2.5820024E0,-6.022998E-1,4.105601E-1,-3.0714686E0,-4.1785493E-1,-5.7552195E0,-4.916694E-1,-2.2515194E-1,2.5063783E-1,-3.1268132E-1,-1.0224419E-1,2.3214866E-1,-2.9500946E-1,1.8558271E-1,-2.9786116E-1,-3.0264148E-1,-9.837872E-3,-5.0768256E-1,-2.98509E-1,1.2560045E0,8.24001E-2,-6.646905E-2,2.0645578E-1,-4.0325388E-1,-2.961172E0,-6.191131E-2,-5.4207003E-1,-9.825856E-1,-5.9559417E-1,-9.089109E-2,-8.225475E-1,3.1609768E-1,-2.715669E-1],"categories":[],"categories_nodes":[],"categories_segments":[],"categories_sizes":[],"default_left":[0,0,0,0,0,0,0,0,0,0,0,0,0,0,0,0,0,0,0,0,0,0,0,0,0,0,0,0,0,0,0,0,0,0,0,0,0,0,0,0,0,0,0,0,0,0,0,0,0,0,0,0,0,0,0,0,0,0,0,0,0,0,0,0,0,0,0,0,0,0,0,0,0,0,0,0,0,0,0,0,0],"id":3,"left_children":[1,3,5,7,9,11,13,15,17,19,21,23,25,27,-1,29,31,-1,-1,33,35,37,-1,39,41,43,45,47,49,51,53,55,57,59,61,63,65,67,-1,69,-1,-1,-1,-1,-1,-1,71,73,75,77,79,-1,-1,-1,-1,-1,-1,-1,-1,-1,-1,-1,-1,-1,-1,-1,-1,-1,-1,-1,-1,-1,-1,-1,-1,-1,-1,-1,-1,-1,-1],"loss_changes":[4.3962598E4,7.7548096E2,3.9525668E4,6.210365E2,2.849679E2,4.4782312E4,5.5601245E3,2.0518884E2,5.06594E2,1.8594067E2,9.442667E1,2.108902E0,2.7874916E5,8.523103E1,0E0,5.908372E2,2.4635582E0,0E0,0E0,1.5998245E2,6.251953E1,1.3277869E2,0E0,4.615589E0,6.335831E-2,1.0152366E5,3.1612371E4,3.268466E1,1.943531E1,2.2081665E2,2.6890588E2,4.4950914E0,2.676096E-1,3.2562607E1,1.9154826E2,1.494126E2,1.912735E1,2.6061264E2,0E0,1.3902407E0,0E0,0E0,0E0,0E0,0E0,0E0,3.0222998E2,9.0126E0,5.67688E0,3.2179085E1,2.6410591E1,0E0,0E0,0E0,0E0,0E0,0E0,0E0,0E0,0E0,0E0,0E0,0E0,0E0,0E0,0E0,0E0,0E0,0E0,0E0,0E0,0E0,0E0,0E0,0E0,0E0,0E0,0E0,0E0,0E0,0E0],"parents":[2147483647,0,0,1,1,2,2,3,3,4,4,5,5,6,6,7,7,8,8,9,9,10,10,11,11,12,12,13,13,15,15,16,16,19,19,20,20,21,21,23,23,24,24,25,25,26,26,27,27,28,28,29,29,30,30,31,31,32,32,33,33,34,34,35,35,36,36,37,37,39,39,46,46,47,47,48,48,49,49,50,50],"right_children":[2,4,6,8,10,12,14,16,18,20,22,24,26,28,-1,30,32,-1,-1,34,36,38,-1,40,42,44,46,48,50,52,54,56,58,60,62,64,66,68,-1,70,-1,-1,-1,-1,-1,-1,72,74,76,78,80,-1,-1,-1,-1,-1,-1,-1,-1,-1,-1,-1,-1,-1,-1,-1,-1,-1,-1,-1,-1,-1,-1,-1,-1,-1,-1,-1,-1,-1,-1],"split_conditions":[5.2477117E-3,2.5130716E-5,8.059753E-3,2.8952926E-3,2.1613478E-3,3.535115E-3,1.7535998E-2,5.6541858E-6,5.1812014E-5,6.5054954E-4,3.387187E-3,3.2875218E-4,4.571218E-3,8.998249E-3,-1.3457665E1,8.945658E-5,4.862213E-4,-8.355755E0,-1.5495294E-1,2.5677586E-5,1.8922199E-3,5.5456244E-6,-3.0291218E-1,5.5456244E-6,2.8078375E-2,6.411728E-3,5.187868E-3,5.543128E-3,1.215483E-2,1.7504393E-5,1.104774E-3,2.9705443E-6,1.8513827E-3,1.48177005E-5,5.5456244E-6,1.2337829E-3,1.3960912E-3,1.7050161E-3,-2.9626158E-1,5.6541858E-6,-2.7073133E-1,-3.189582E-1,-8.879468E-2,-3.334911E1,-1.05219025E2,-2.1932507E1,1E0,3.6691101E-3,6.1787795E-3,7.7852304E-3,5.5456244E-6,-3.0714686E0,-4.1785493E-1,-5.7552195E0,-4.916694E-1,-2.2515194E-1,2.5063783E-1,-3.1268132E-1,-1.0224419E-1,2.3214866E-1,-2.9500946E-1,1.8558271E-1,-2.9786116E-1,-3.0264148E-1,-9.837872E-3,-5.0768256E-1,-2.98509E-1,1.2560045E0,8.24001E-2,-6.646905E-2,2.0645578E-1,-4.0325388E-1,-2.961172E0,-6.191131E-2,-5.4207003E-1,-9.825856E-1,-5.9559417E-1,-9.089109E-2,-8.225475E-1,3.1609768E-1,-2.715669E-1],"split_indices":[1,4,1,0,1,0,1,3,3,0,0,3,0,1,0,0,0,0,0,1,1,2,0,2,3,1,0,0,1,1,1,1,0,0,2,1,0,0,0,3,0,0,0,0,0,0,5,4,0,0,2,0,0,0,0,0,0,0,0,0,0,0,0,0,0,0,0,0,0,0,0,0,0,0,0,0,0,0,0,0,0],"split_type":[0,0,0,0,0,0,0,0,0,0,0,0,0,0,0,0,0,0,0,0,0,0,0,0,0,0,0,0,0,0,0,0,0,0,0,0,0,0,0,0,0,0,0,0,0,0,0,0,0,0,0,0,0,0,0,0,0,0,0,0,0,0,0,0,0,0,0,0,0,0,0,0,0,0,0,0,0,0,0,0,0],"sum_hessian":[3.714046E3,3.4627058E3,2.5134016E2,3.9626335E1,3.4230793E3,1.2569587E2,1.256443E2,3.7478546E1,2.1477885E0,2.9841155E3,4.3896408E2,4.3448322E1,8.224755E1,1.2370299E2,1.9413134E0,2.4570734E1,1.2907812E1,1.086541E0,1.0612476E0,6.2081244E2,2.363303E3,3.643071E2,7.465695E1,1.4115508E1,2.9332813E1,1.04246645E1,7.182288E1,4.4074844E1,7.962814E1,2.023243E1,4.338305E0,5.219777E0,7.6880355E0,2.8498355E2,3.358289E2,2.1491362E3,2.1416675E2,2.9207724E2,7.222986E1,4.982143E0,9.133365E0,2.829055E1,1.0422627E0,8.335034E0,2.0896304E0,7.897528E0,6.3925354E1,1.5632954E1,2.8441889E1,5.0543716E1,2.9084429E1,2.4651487E0,1.776728E1,2.9598992E0,1.3784057E0,2.9629748E0,2.2568023E0,5.664058E0,2.023977E0,1.0259306E1,2.7472424E2,2.2801512E2,1.0781377E2,1.9787188E3,1.7041742E2,1.537703E2,6.0396446E1,1.7169266E1,2.74908E2,2.7401786E0,2.2419643E0,4.8342676E0,5.9091087E1,1.1313206E1,4.3197474E0,1.1079589E1,1.73623E1,4.5341793E1,5.2019215E0,1.9669855E1,9.414573E0],"tree_param":{"num_deleted":"0","num_feature":"7","num_nodes":"81","size_leaf_vector":"1"}},{"base_weights":[-6.973342E-1,-5.2779174E0,-6.581974E-1,-7.3846436E0,7.482083E0,-6.474792E-1,-5.0880804E0,-1.3350799E1,-5.5756885E-1,-7.699925E-1,-2.0203836E-1,-4.103843E0,-1.97785E1,-1.24347605E-1,-1.0121734E0,-2.3150527E-1,-8.881735E-1,5.579538E-1,-1.3684312E0,-5.516463E0,-1.348064E0,-2.2716345E-1,4.3364102E-1,-3.888012E-1,-4.6586743E-1,-9.35451E-1,1.7802134E-1,-6.7695194E-1,-9.9995697E-1,2.5587345E-2,1.1948017E1,-5.99821E0,-1.0304811E0,-1.05319E0,8.466692E-2,3.186733E-1,-1.7935033E-1,-1.8988971E-1,-2.8893615E-3,-1.1553185E-1,-2.9260114E-1,1.7964017E-1,-2.965414E-1,-2.744139E-1,3.692192E-1,-3.1058967E-1,-1.6703328E-1,9.742482E-2,-2.970097E-1,-2.813618E-1,1.791087E1,-2.829326E-1,-1.27326355E1,-5.9180446E0,-2.07268E-1],"categories":[],"categories_nodes":[],"categories_segments":[],"categories_sizes":[],"default_left":[0,0,0,0,0,0,0,0,0,0,0,0,0,0,0,0,0,0,0,0,0,0,0,0,0,0,0,0,0,0,0,0,0,0,0,0,0,0,0,0,0,0,0,0,0,0,0,0,0,0,0,0,0,0,0],"id":4,"left_children":[1,3,5,7,-1,9,-1,11,13,15,17,19,-1,21,23,25,27,29,31,-1,33,-1,35,-1,37,39,41,43,45,47,49,51,53,-1,-1,-1,-1,-1,-1,-1,-1,-1,-1,-1,-1,-1,-1,-1,-1,-1,-1,-1,-1,-1,-1],"loss_changes":[5.7621875E2,1.9190708E3,5.49443E2,1.0616469E3,0E0,1.7482117E2,0E0,6.518122E3,2.490367E0,1.5980408E2,6.150653E2,4.84635E2,0E0,3.132952E0,3.796172E-1,1.3100705E2,4.7996826E1,2.5482905E3,4.2203857E2,0E0,4.3042137E1,0E0,3.7839975E0,0E0,2.7823317E-1,3.292099E0,1.4184131E2,3.2611844E2,2.0505005E1,1.2262694E2,1.1603617E4,3.3518286E3,1.6134758E3,0E0,0E0,0E0,0E0,0E0,0E0,0E0,0E0,0E0,0E0,0E0,0E0,0E0,0E0,0E0,0E0,0E0,0E0,0E0,0E0,0E0,0E0],"parents":[2147483647,0,0,1,1,2,2,3,3,5,5,7,7,8,8,9,9,10,10,11,11,13,13,14,14,15,15,16,16,17,17,18,18,20,20,22,22,24,24,25,25,26,26,27,27,28,28,29,29,30,30,31,31,32,32],"right_children":[2,4,6,8,-1,10,-1,12,14,16,18,20,-1,22,24,26,28,30,32,-1,34,-1,36,-1,38,40,42,44,46,48,50,52,54,-1,-1,-1,-1,-1,-1,-1,-1,-1,-1,-1,-1,-1,-1,-1,-1,-1,-1,-1,-1,-1,-1],"split_conditions":[2.5130716E-5,4.981793E-3,1.6427515E-2,5.6541858E-6,7.482083E0,2.389391E-3,-5.0880804E0,8.945658E-5,9.798469E-4,5.414504E-4,5.187868E-3,2.2639912E-5,-1.97785E1,2.9705443E-6,1.8513827E-3,1.9971455E-6,1.2634071E-3,3.535115E-3,1E0,-5.516463E0,9.3379145E-5,-2.2716345E-1,5.5456244E-6,-3.888012E-1,6.7860994E-4,1.48177005E-5,5.5456244E-6,1.2337829E-3,2.0961973E-3,5.5456244E-6,5.483004E-3,7.544853E-3,5.483004E-3,-1.05319E0,8.466692E-2,3.186733E-1,-1.7935033E-1,-1.8988971E-1,-2.8893615E-3,-1.1553185E-1,-2.9260114E-1,1.7964017E-1,-2.965414E-1,-2.744139E-1,3.692192E-1,-3.1058967E-1,-1.6703328E-1,9.742482E-2,-2.970097E-1,-2.813618E-1,1.791087E1,-2.829326E-1,-1.27326355E1,-5.9180446E0,-2.07268E-1],"split_indices":[4,1,2,3,0,1,0,0,0,0,0,1,0,1,0,1,0,0,5,0,1,0,2,0,1,0,2,1,1,2,1,1,1,0,0,0,0,0,0,0,0,0,0,0,0,0,0,0,0,0,0,0,0,0,0],"split_type":[0,0,0,0,0,0,0,0,0,0,0,0,0,0,0,0,0,0,0,0,0,0,0,0,0,0,0,0,0,0,0,0,0,0,0,0,0,0,0,0,0,0,0,0,0,0,0,0,0,0,0,0,0,0,0],"sum_hessian":[3.2326448E3,2.6251898E1,3.2063928E3,2.5247349E1,1.0045507E0,3.205325E3,1.0677035E0,1.2963248E1,1.2284101E1,2.5133337E3,6.9199146E2,1.1941174E1,1.0220741E0,6.942082E0,5.342018E0,4.52859E2,2.0604746E3,4.1930472E2,2.7268674E2,1.0137714E0,1.09274025E1,3.0855038E0,3.856578E0,2.6124353E0,2.7295825E0,1.6608575E2,2.8677322E2,7.1551733E2,1.3449573E3,4.0153918E2,1.7765514E1,1.7411224E1,2.5527551E2,4.2011757E0,6.726227E0,2.3777165E0,1.4788616E0,1.7143364E0,1.0152462E0,1.1943655E1,1.541421E2,2.1110849E2,7.566475E1,6.3668555E2,7.883179E1,1.2443861E3,1.00571205E2,3.1069946E2,9.083973E1,1.4762462E1,3.0030532E0,1.619123E1,1.2199928E0,3.5354853E0,2.5174002E2],"tree_param":{"num_deleted":"0","num_feature":"7","num_nodes":"55","size_leaf_vector":"1"}},{"base_weights":[-1.6281787E0,-5.0827396E-1,-1.601527E1,6.0199943E0,-6.767201E-1,-2.5763268E0,-6.3640814E2,1.9399012E1,2.4809873E0,-6.182082E-1,-3.642829E0,-3.2868283E0,-2.9595008E-1,-8.52424E1,-2.7992148E2,3.661515E1,1.067735E0,1.744271E0,5.992206E0,-4.4722852E-1,-1.2313184E0,-2.9525545E-1,-2.1943735E1,-2.4387264E0,-1.0463198E0,2.1654098E0,-2.4896891E-1,2.4358108E0,-3.1759133E0,-5.243241E-1,2.4871569E1,-1.5235441E0,1.671198E-1,-1.9677138E-1,-7.581211E-1,1.3526694E0,8.566091E-3,-1.7305206E-1,7.5870544E-1,-2.3781781E0,-3.611839E-1,-1.9139127E-1,1.428063E-1,-2.9120696E-1,-5.640421E-1,1.4463931E-1,-4.0984586E-1],"categories":[],"categories_nodes":[],"categories_segments":[],"categories_sizes":[],"default_left":[0,0,0,0,0,0,0,0,0,0,0,0,0,0,0,0,0,0,0,0,0,0,0,0,0,0,0,0,0,0,0,0,0,0,0,0,0,0,0,0,0,0,0,0,0,0,0],"id":5,"left_children":[1,3,5,7,9,11,13,15,17,19,21,23,-1,-1,-1,-1,25,27,-1,29,31,-1,-1,33,-1,35,-1,37,39,41,-1,43,45,-1,-1,-1,-1,-1,-1,-1,-1,-1,-1,-1,-1,-1,-1],"loss_changes":[5.067683E4,3.214651E3,1.89222E6,3.43385E3,4.9186353E2,2.4903613E2,2.3776925E5,2.8541176E4,7.294177E2,2.9225793E2,1.0067576E4,1.7721802E1,0E0,0E0,0E0,0E0,3.0827393E1,2.0508722E2,0E0,1.4088859E4,2.4893103E2,0E0,0E0,3.5092773E0,0E0,4.5474274E1,0E0,1.5897675E1,6.1492683E1,2.4866772E2,0E0,9.742517E1,5.189574E1,0E0,0E0,0E0,0E0,0E0,0E0,0E0,0E0,0E0,0E0,0E0,0E0,0E0,0E0],"parents":[2147483647,0,0,1,1,2,2,3,3,4,4,5,5,6,6,7,7,8,8,9,9,10,10,11,11,16,16,17,17,19,19,20,20,23,23,25,25,27,27,28,28,29,29,31,31,32,32],"right_children":[2,4,6,8,10,12,14,16,18,20,22,24,-1,-1,-1,-1,26,28,-1,30,32,-1,-1,34,-1,36,-1,38,40,42,-1,44,46,-1,-1,-1,-1,-1,-1,-1,-1,-1,-1,-1,-1,-1,-1],"split_conditions":[1.1090302E-3,2.5130716E-5,3.535115E-3,7.0595765E-4,3.992698E-4,2.5130716E-5,3.2875218E-4,1E0,5.763374E-3,4.571218E-3,3.0643798E-3,5.483004E-3,-2.9595008E-1,-8.52424E1,-2.7992148E2,3.661515E1,5.5456244E-6,1.2194761E-3,5.992206E0,5.483004E-3,8.998249E-3,-2.9525545E-1,-2.1943735E1,4.981793E-3,-1.0463198E0,5.6541858E-6,-2.4896891E-1,1.0774995E-3,2.3623496E-5,2.7841772E-3,2.4871569E1,5.2477117E-3,4.6002623E-3,-1.9677138E-1,-7.581211E-1,1.3526694E0,8.566091E-3,-1.7305206E-1,7.5870544E-1,-2.3781781E0,-3.611839E-1,-1.9139127E-1,1.428063E-1,-2.9120696E-1,-5.640421E-1,1.4463931E-1,-4.0984586E-1],"split_indices":[2,4,0,0,2,4,3,5,1,0,0,1,0,0,0,0,2,0,0,1,1,0,0,1,0,3,0,1,3,1,0,1,3,0,0,0,0,0,0,0,0,0,0,0,0,0,0],"split_type":[0,0,0,0,0,0,0,0,0,0,0,0,0,0,0,0,0,0,0,0,0,0,0,0,0,0,0,0,0,0,0,0,0,0,0,0,0,0,0,0,0,0,0,0,0,0,0],"sum_hessian":[3.1447566E3,2.918605E3,2.2615164E2,7.253947E1,2.8460654E3,2.2233948E2,3.8121624E0,1.423675E1,5.8302715E1,2.7921929E3,5.387264E1,1.5292784E2,6.941164E1,2.637778E0,1.1743842E0,1.2998431E0,1.2936907E1,5.700181E1,1.3009094E0,2.1846758E3,6.07517E2,5.286461E1,1.0080297E0,3.1804857E1,1.2112298E2,8.106584E0,4.8303227E0,5.0420116E1,6.5816913E0,2.1836497E3,1.0260248E0,5.024357E2,1.05081345E2,1.8993534E0,2.9905504E1,3.336923E0,4.769661E0,1.3573985E0,4.9062717E1,1.0446612E0,5.53703E0,1.9612043E3,2.2244537E2,1.9846484E2,3.0397083E2,8.774058E1,1.7340767E1],"tree_param":{"num_deleted":"0","num_feature":"7","num_nodes":"47","size_leaf_vector":"1"}},{"base_weights":[-9.4587344E-1,-5.6182265E-1,-2.3995745E0,-1.1543916E0,-2.9617625E-1,-6.5837665E0,-5.237186E-1,-1.2345396E1,-9.020775E-1,-1.9474809E-1,-1.2524091E0,-1.5175234E1,-1.9749202E0,-8.2323647E-1,8.804105E0,-1.559489E1,2.7675572E-1,1.2180008E0,-9.683657E-1,3.4553862E0,-2.8134117E-1,-2.302775E0,-2.980242E-1,-2.3663285E0,-3.914847E1,-1.2935395E0,-1.5953665E0,-1.4722788E-1,-2.0530782E0,1.4867276E1,8.73495E-1,9.510764E-1,-3.7998876E-1,-5.414056E-1,7.986718E0,-7.359185E-1,-2.9618505E-1,1.7868814E0,1.064584E1,-1.0777466E0,-1.1361036E-1,-4.9210196E0,-1.616339E0,-4.182565E0,-1.6806797E0,-5.35333E-1,-1.2528523E0,1.8138615E1,-4.0982845E-1,-6.2275777E0,-1.7397894E0,2.8485236E-1,1.3706905E-2,-2.6242784E-1,1.5320961E-1,-5.5856563E-2,-2.652259E-1,9.460438E-1,2.9321108E0,4.531522E-1,-2.8198975E-1,1.4275559E0,-2.0547296E-1,4.5303383E0,1.8136617E0,-2.419467E0,-2.9810053E-1,2.5709186E0,-4.8262365E-2,-2.2693032E-1,-2.9799294E0,-1.9909856E-1,-5.01547E-1,-4.6903983E-1,-1.5764362E0,-5.341871E-1,-2.5441933E-1,-7.3903006E-1,-3.4474295E-1,9.556526E0,-6.215229E-1,6.91872E-1,-1.5661591E-1,-5.3516966E-1,6.2386084E-1],"categories":[],"categories_nodes":[],"categories_segments":[],"categories_sizes":[],"default_left":[0,0,0,0,0,0,0,0,0,0,0,0,0,0,0,0,0,0,0,0,0,0,0,0,0,0,0,0,0,0,0,0,0,0,0,0,0,0,0,0,0,0,0,0,0,0,0,0,0,0,0,0,0,0,0,0,0,0,0,0,0,0,0,0,0,0,0,0,0,0,0,0,0,0,0,0,0,0,0,0,0,0,0,0,0],"id":6,"left_children":[1,3,5,7,9,11,13,15,17,19,21,23,25,27,29,-1,31,33,35,37,39,41,-1,43,-1,-1,45,47,49,-1,51,-1,53,55,57,59,-1,61,63,65,67,69,71,73,75,-1,77,79,81,-1,83,-1,-1,-1,-1,-1,-1,-1,-1,-1,-1,-1,-1,-1,-1,-1,-1,-1,-1,-1,-1,-1,-1,-1,-1,-1,-1,-1,-1,-1,-1,-1,-1,-1,-1],"loss_changes":[1.5556167E3,3.4711676E2,4.5684873E3,1.917095E3,1.4770383E2,7.1061753E3,1.1339243E3,7.5081294E3,9.518536E1,4.3725476E2,3.7457474E1,9.241554E4,9.817987E1,3.2529956E2,4.0392825E3,0E0,2.4683165E1,2.5111853E2,2.1282349E0,3.6563306E2,1.8011215E2,4.262137E1,0E0,6.459619E1,0E0,0E0,4.466156E0,1.2261531E3,7.775048E2,0E0,6.860275E-1,0E0,5.277827E0,1.9515529E0,6.653351E0,2.5615406E1,0E0,2.032341E2,2.8335876E1,1.2981192E2,4.592475E2,1.04285324E2,1.4766693E-1,3.416336E1,2.1036224E0,0E0,2.2117043E0,1.0682089E3,7.7767746E1,0E0,2.689801E1,0E0,0E0,0E0,0E0,0E0,0E0,0E0,0E0,0E0,0E0,0E0,0E0,0E0,0E0,0E0,0E0,0E0,0E0,0E0,0E0,0E0,0E0,0E0,0E0,0E0,0E0,0E0,0E0,0E0,0E0,0E0,0E0,0E0,0E0],"parents":[2147483647,0,0,1,1,2,2,3,3,4,4,5,5,6,6,7,7,8,8,9,9,10,10,11,11,12,12,13,13,14,14,16,16,17,17,18,18,19,19,20,20,21,21,23,23,26,26,27,27,28,28,30,30,32,32,33,33,34,34,35,35,37,37,38,38,39,39,40,40,41,41,42,42,43,43,44,44,46,46,47,47,48,48,50,50],"right_children":[2,4,6,8,10,12,14,16,18,20,22,24,26,28,30,-1,32,34,36,38,40,42,-1,44,-1,-1,46,48,50,-1,52,-1,54,56,58,60,-1,62,64,66,68,70,72,74,76,-1,78,80,82,-1,84,-1,-1,-1,-1,-1,-1,-1,-1,-1,-1,-1,-1,-1,-1,-1,-1,-1,-1,-1,-1,-1,-1,-1,-1,-1,-1,-1,-1,-1,-1,-1,-1,-1,-1],"split_conditions":[5.2477117E-3,1.0121668E-4,6.411728E-3,2.5130716E-5,5.5456244E-6,4.571218E-3,5.750365E-2,1E0,5.9773043E-5,2.4866994E-4,2.5130716E-5,3.535115E-3,5.483004E-3,5.5456244E-6,1.7380675E-2,-1.559489E1,3.0060624E-5,1.9971455E-6,1.03355305E-4,2.7565644E-4,3.8618754E-4,8.9492375E-4,-2.980242E-1,3.992698E-4,-3.914847E1,-1.2935395E0,5.187868E-3,1.1817522E-3,2.464505E-3,1.4867276E1,8.05074E-3,9.510764E-1,6.557015E-5,1.48177005E-5,1.7504393E-5,6.37744E-7,-2.9618505E-1,1.6258722E-4,2.1991332E-4,2.5130716E-5,3.4743123E-4,2.3623496E-5,4.981793E-3,1.2345699E-3,2.5130716E-5,-5.35333E-1,1.3666601E-3,4.1659852E-5,4.646289E-3,-6.2275777E0,3.387187E-3,2.8485236E-1,1.3706905E-2,-2.6242784E-1,1.5320961E-1,-5.5856563E-2,-2.652259E-1,9.460438E-1,2.9321108E0,4.531522E-1,-2.8198975E-1,1.4275559E0,-2.0547296E-1,4.5303383E0,1.8136617E0,-2.419467E0,-2.9810053E-1,2.5709186E0,-4.8262365E-2,-2.2693032E-1,-2.9799294E0,-1.9909856E-1,-5.01547E-1,-4.6903983E-1,-1.5764362E0,-5.341871E-1,-2.5441933E-1,-7.3903006E-1,-3.4474295E-1,9.556526E0,-6.215229E-1,6.91872E-1,-1.5661591E-1,-5.3516966E-1,6.2386084E-1],"split_indices":[1,1,1,4,2,0,0,5,0,0,4,0,1,2,4,0,0,1,3,1,1,2,0,2,0,0,0,4,2,0,3,0,1,0,1,1,0,0,0,4,0,3,1,4,4,0,4,3,0,0,0,0,0,0,0,0,0,0,0,0,0,0,0,0,0,0,0,0,0,0,0,0,0,0,0,0,0,0,0,0,0,0,0,0,0],"split_type":[0,0,0,0,0,0,0,0,0,0,0,0,0,0,0,0,0,0,0,0,0,0,0,0,0,0,0,0,0,0,0,0,0,0,0,0,0,0,0,0,0,0,0,0,0,0,0,0,0,0,0,0,0,0,0,0,0,0,0,0,0,0,0,0,0,0,0,0,0,0,0,0,0,0,0,0,0,0,0,0,0,0,0,0,0],"sum_hessian":[2.7877854E3,2.2062947E3,5.814907E2,6.8188654E2,1.5244081E3,1.792205E2,4.022702E2,1.3978157E1,6.679084E2,1.3793077E3,1.4510031E2,6.177379E1,1.17446724E2,3.906385E2,1.1631719E1,2.6229305E0,1.13552265E1,1.972349E1,6.4818494E2,3.106186E1,1.3482458E3,2.7140327E1,1.17959984E2,5.6516815E1,5.256974E0,1.4962677E1,1.0248405E2,2.5280086E2,1.3783763E2,1.0397575E0,1.0591962E1,1.3925729E0,9.962654E0,1.6384617E1,3.3388731E0,5.1785297E1,5.963996E2,2.6225002E1,4.8368583E0,2.3361047E2,1.1146354E3,4.3560977E0,2.278423E1,1.4090882E1,4.2425934E1,6.3319965E1,3.916408E1,2.6152942E0,2.5018556E2,1.1955378E0,1.3664209E2,9.5665045E0,1.0254574E0,6.4163175E0,3.5463364E0,8.802951E0,7.581666E0,1.6475241E0,1.691349E0,3.7789395E0,4.8006355E1,1.1488346E1,1.4736655E1,1.2975607E0,3.5392976E0,1.6490405E0,2.3196144E2,5.058055E0,1.1095774E3,3.007805E0,1.3482928E0,1.9672524E0,2.0816978E1,4.807016E0,9.283866E0,3.6862507E1,5.563424E0,1.2949619E0,3.786912E1,1.2147112E0,1.4005829E0,9.15144E0,2.4103412E2,1.3560887E2,1.03322E0],"tree_param":{"num_deleted":"0","num_feature":"7","num_nodes":"85","size_leaf_vector":"1"}},{"base_weights":[-4.7638673E-1,-5.176421E-1,8.311707E0,-3.9332306E-1,-1.5217012E0,1.2474019E1,3.4379965E-1,-8.5826916E-1,-7.696141E-2,-1.3385855E0,-5.5346684E0,-3.0010295E-1,2.7504835E-1,-4.4363294E0,-7.6146865E-1,4.5925136E0,-1.6107868E-1,-1.5561241E0,-2.9792592E-1,-5.946321E0,-1.2073847E0,-1.3434796E1,-1.722223E-1,2.2489932E-1,-8.72557E-1,2.2025526E0,1.2109825E1,2.2156613E0,-2.5745106E-1,-2.5075011E0,-4.4982603E-1,-5.6408304E-1,6.6820776E-1,3.055407E-1,-1.8855369E-1,-6.6679334E-3,1.4876893E0,-2.8595567E-1,-1.3309571E-1,2.0281289E0,-2.544095E-1,5.150547E0,1.5137323E0,4.2536196E-1,6.5355477E0,-4.3409327E-1,-4.689969E-2,-1.0046847E0,-2.371708E-1],"categories":[],"categories_nodes":[],"categories_segments":[],"categories_sizes":[],"default_left":[0,0,0,0,0,0,0,0,0,0,0,0,0,0,0,0,0,0,0,0,0,0,0,0,0,0,0,0,0,0,0,0,0,0,0,0,0,0,0,0,0,0,0,0,0,0,0,0,0],"id":7,"left_children":[1,3,5,7,9,-1,11,13,15,17,19,-1,-1,21,23,25,27,29,-1,-1,31,-1,33,35,37,39,41,43,45,47,-1,-1,-1,-1,-1,-1,-1,-1,-1,-1,-1,-1,-1,-1,-1,-1,-1,-1,-1],"loss_changes":[9.588518E2,3.2662317E2,3.2622444E3,3.4324442E2,2.0457123E2,0E0,9.374715E0,3.239192E2,5.4672095E2,1.9289032E1,7.346041E2,0E0,0E0,4.239027E3,1.0114502E2,4.1585358E2,3.1354718E2,5.3214417E0,0E0,0E0,2.8414654E1,0E0,1.331469E1,1.1014091E2,2.8218994E1,2.8258844E2,1.1775769E2,8.0202905E2,1.5783221E2,8.883308E0,0E0,0E0,0E0,0E0,0E0,0E0,0E0,0E0,0E0,0E0,0E0,0E0,0E0,0E0,0E0,0E0,0E0,0E0,0E0],"parents":[2147483647,0,0,1,1,2,2,3,3,4,4,6,6,7,7,8,8,9,9,10,10,13,13,14,14,15,15,16,16,17,17,20,20,22,22,23,23,24,24,25,25,26,26,27,27,28,28,29,29],"right_children":[2,4,6,8,10,-1,12,14,16,18,20,-1,-1,22,24,26,28,30,-1,-1,32,-1,34,36,38,40,42,44,46,48,-1,-1,-1,-1,-1,-1,-1,-1,-1,-1,-1,-1,-1,-1,-1,-1,-1,-1,-1],"split_conditions":[5.750365E-2,5.5456244E-6,1.9603701E-2,5.257528E-4,3.3185135E-3,1.2474019E1,1E0,2.5130716E-5,5.9644534E-4,2.5130716E-5,3.535115E-3,-3.0010295E-1,2.7504835E-1,1E0,1.7668818E-4,7.104132E-4,2.5130716E-5,8.9492375E-4,-2.9792592E-1,-5.946321E0,3.1848173E-4,-1.3434796E1,5.9773043E-5,2.0594096E-4,3.5782473E-4,4.446659E-4,5.414504E-4,4.981793E-3,1E0,1E0,-4.4982603E-1,-5.6408304E-1,6.6820776E-1,3.055407E-1,-1.8855369E-1,-6.6679334E-3,1.4876893E0,-2.8595567E-1,-1.3309571E-1,2.0281289E0,-2.544095E-1,5.150547E0,1.5137323E0,4.2536196E-1,6.5355477E0,-4.3409327E-1,-4.689969E-2,-1.0046847E0,-2.371708E-1],"split_indices":[0,2,4,1,0,0,5,4,0,4,0,0,0,5,0,1,4,2,0,0,2,0,0,1,1,0,0,1,5,5,0,0,0,0,0,0,0,0,0,0,0,0,0,0,0,0,0,0,0],"split_type":[0,0,0,0,0,0,0,0,0,0,0,0,0,0,0,0,0,0,0,0,0,0,0,0,0,0,0,0,0,0,0,0,0,0,0,0,0,0,0,0,0,0,0,0,0,0,0,0,0],"sum_hessian":[2.6318315E3,2.620471E3,1.1360609E1,2.332999E3,2.8747195E2,1.3800503E0,9.980558E0,9.4396796E2,1.389031E3,2.7620215E2,1.1269812E1,2.7602262E0,7.220332E0,2.3684452E1,9.202835E2,2.3631199E1,1.3653998E3,1.6733691E2,1.0886522E2,1.7876036E0,9.482208E0,1.3556131E0,2.2328838E1,9.3050606E1,8.2723285E2,1.8911657E1,4.7195415E0,5.2350056E1,1.3130498E3,6.9814606E0,1.6035545E2,8.307314E0,1.1748937E0,5.8447824E0,1.6484056E1,8.938013E1,3.6704812E0,6.953026E2,1.3193025E2,7.094965E0,1.1816693E1,1.9166201E0,2.8029215E0,5.1329945E1,1.0201105E0,1.01831345E2,1.2112184E3,4.0473566E0,2.934104E0],"tree_param":{"num_deleted":"0","num_feature":"7","num_nodes":"49","size_leaf_vector":"1"}},{"base_weights":[-6.201836E-1,-4.9368978E-1,-2.6256872E1,-3.956078E-1,-1.4437574E0,-6.472777E1,1.5885602E1,-7.842144E-1,3.375196E-2,-1.2209729E0,-6.747312E0,-2.8110886E1,-2.0155121E-1,1.4216797E1,6.621418E-1,-3.246625E0,-7.2592163E-1,1.8154681E0,-1.7637245E-1,-4.0395913E-1,-2.9682517E-1,-6.5785265E0,-1.2110189E0,2.3870656E-1,1.4460319E-2,-9.615942E0,-1.1405246E-1,-2.4505171E-1,-9.400216E-1,3.7687203E-1,3.127741E0,2.091604E-1,-7.555897E-1,-5.223653E-1,2.834074E-1,4.050526E-1,-9.7050354E-2,-9.9172704E-2,1.1173618E0,-3.088533E-1,-2.1127605E-1,3.1759548E-1,-3.625159E-2,4.0644327E-1,1.6902192E0,-5.2433573E-2,1.4233015E1,-1.6255597E0,-1.7187619E-1],"categories":[],"categories_nodes":[],"categories_segments":[],"categories_sizes":[],"default_left":[0,0,0,0,0,0,0,0,0,0,0,0,0,0,0,0,0,0,0,0,0,0,0,0,0,0,0,0,0,0,0,0,0,0,0,0,0,0,0,0,0,0,0,0,0,0,0,0,0],"id":8,"left_children":[1,3,5,7,9,11,13,15,17,19,21,-1,-1,-1,23,25,27,29,31,-1,-1,-1,33,-1,-1,-1,35,37,39,41,43,45,47,-1,-1,-1,-1,-1,-1,-1,-1,-1,-1,-1,-1,-1,-1,-1,-1],"loss_changes":[8.0174062E3,2.2914429E2,2.070898E4,3.7308478E2,2.6387726E2,1.2081229E4,3.1320747E3,1.661128E2,3.9836026E2,5.1290283E0,7.351924E2,0E0,0E0,0E0,4.0941644E-1,2.419596E3,1.1794226E2,2.1072543E2,2.1273422E2,0E0,0E0,0E0,1.044545E1,0E0,0E0,0E0,8.172377E0,1.2173903E2,1.6024353E1,1.8683607E1,2.5259802E2,1.038721E4,3.211089E2,0E0,0E0,0E0,0E0,0E0,0E0,0E0,0E0,0E0,0E0,0E0,0E0,0E0,0E0,0E0,0E0],"parents":[2147483647,0,0,1,1,2,2,3,3,4,4,5,5,6,6,7,7,8,8,9,9,10,10,14,14,15,15,16,16,17,17,18,18,22,22,26,26,27,27,28,28,29,29,30,30,31,31,32,32],"right_children":[2,4,6,8,10,12,14,16,18,20,22,-1,-1,-1,24,26,28,30,32,-1,-1,-1,34,-1,-1,-1,36,38,40,42,44,46,48,-1,-1,-1,-1,-1,-1,-1,-1,-1,-1,-1,-1,-1,-1,-1,-1],"split_conditions":[5.750365E-2,5.5456244E-6,1.7535998E-2,1.104774E-3,3.3185135E-3,1.9603701E-2,2.3724506E-2,2.5130716E-5,1.2194761E-3,2.5130716E-5,4.7233417E-3,-2.8110886E1,-2.0155121E-1,1.4216797E1,7.1353777E-3,1E0,4.446659E-4,1.2681035E-3,4.571218E-3,-4.0395913E-1,-2.9682517E-1,-6.5785265E0,3.1848173E-4,2.3870656E-1,1.4460319E-2,-9.615942E0,1.48177005E-5,6.1063987E-4,8.118481E-4,7.742764E-4,1E0,5.483004E-3,1E0,-5.223653E-1,2.834074E-1,4.050526E-1,-9.7050354E-2,-9.9172704E-2,1.1173618E0,-3.088533E-1,-2.1127605E-1,3.1759548E-1,-3.625159E-2,4.0644327E-1,1.6902192E0,-5.2433573E-2,1.4233015E1,-1.6255597E0,-1.7187619E-1],"split_indices":[0,2,1,1,0,4,4,4,0,4,0,0,0,0,3,5,0,1,0,0,0,0,2,0,0,0,0,1,1,0,5,1,5,0,0,0,0,0,0,0,0,0,0,0,0,0,0,0,0],"split_type":[0,0,0,0,0,0,0,0,0,0,0,0,0,0,0,0,0,0,0,0,0,0,0,0,0,0,0,0,0,0,0,0,0,0,0,0,0,0,0,0,0,0,0,0,0,0,0,0,0],"sum_hessian":[2.4753064E3,2.4641672E3,1.1139172E1,2.2348633E3,2.2930385E2,5.5430875E0,5.5960846E0,1.1726711E3,1.0621921E3,2.212405E2,8.063352E0,3.497976E0,2.0451112E0,1.134798E0,4.4612865E0,2.5853857E1,1.1468173E3,1.11247444E2,9.5094476E2,1.403323E2,8.090819E1,1.3635373E0,6.6998143E0,3.4210844E0,1.0402023E0,1.6302445E0,2.4223614E1,3.5396167E2,7.928556E2,5.368346E1,5.7563988E1,5.713123E2,3.796324E2,5.531592E0,1.1682225E0,2.3498437E0,2.187377E1,3.4739386E2,6.567802E0,5.7227374E2,2.2058186E2,2.2177284E1,3.1506176E1,3.461704E1,2.2946949E1,5.676942E2,3.6181498E0,1.32307825E1,3.664016E2],"tree_param":{"num_deleted":"0","num_feature":"7","num_nodes":"49","size_leaf_vector":"1"}},{"base_weights":[-3.8145074E-1,-4.2672002E-1,1.5471904E1,-3.4151715E-1,-1.4198964E0,1.3423593E1,7.5083725E-2,-7.012385E-1,-3.0383931E-2,-1.1531564E0,-7.2305136E0,-3.000493E-1,2.2860108E-1,-3.0812829E0,-6.3797987E-1,2.3611303E-1,-5.8696365E-1,-3.702374E-1,-2.954585E-1,-6.4068637E0,-8.0516E-1,-4.676777E0,-5.0315934E-1,-1.974653E-1,-8.7862176E-1,8.280143E-3,1.5942187E1,-1.6597795E1,-4.0853345E-1,6.064902E-1,-1.7394238E0,-5.3255334E0,-7.270818E-1,-2.5128335E-1,-3.1252526E-2,1.3691452E-1,-1.0278398E-1,-2.988093E-1,-1.814775E-1,-4.1917156E-2,2.8913936E-1,1.9914971E-1,1.1588771E1,-5.003873E-1,-9.180888E0,-3.7528077E-1,1.6706957E-1,-2.4656935E-1,-6.296127E-1],"categories":[],"categories_nodes":[],"categories_segments":[],"categories_sizes":[],"default_left":[0,0,0,0,0,0,0,0,0,0,0,0,0,0,0,0,0,0,0,0,0,0,0,0,0,0,0,0,0,0,0,0,0,0,0,0,0,0,0,0,0,0,0,0,0,0,0,0,0],"id":9,"left_children":[1,3,5,7,9,-1,11,13,15,17,19,-1,-1,21,23,25,27,-1,-1,-1,29,31,33,35,37,39,41,43,45,-1,47,-1,-1,-1,-1,-1,-1,-1,-1,-1,-1,-1,-1,-1,-1,-1,-1,-1,-1],"loss_changes":[1.6466421E3,1.9242627E2,2.9415073E3,2.3511333E2,2.7034198E2,0E0,4.6644845E0,1.4472635E2,1.6738786E2,1.1433105E0,6.818511E2,0E0,0E0,1.0033601E2,1.0057016E2,2.7308682E3,1.0370255E3,0E0,0E0,0E0,2.0241924E1,4.077354E2,1.3357654E0,3.2142574E1,1.9138367E1,1.0666478E2,3.7567407E3,7.856987E2,2.9540756E2,0E0,2.1389008E-2,0E0,0E0,0E0,0E0,0E0,0E0,0E0,0E0,0E0,0E0,0E0,0E0,0E0,0E0,0E0,0E0,0E0,0E0],"parents":[2147483647,0,0,1,1,2,2,3,3,4,4,6,6,7,7,8,8,9,9,10,10,13,13,14,14,15,15,16,16,20,20,21,21,22,22,23,23,24,24,25,25,26,26,27,27,28,28,30,30],"right_children":[2,4,6,8,10,-1,12,14,16,18,20,-1,-1,22,24,26,28,-1,-1,-1,30,32,34,36,38,40,42,44,46,-1,48,-1,-1,-1,-1,-1,-1,-1,-1,-1,-1,-1,-1,-1,-1,-1,-1,-1,-1],"split_conditions":[5.750365E-2,5.5456244E-6,5.6541858E-6,1.0774995E-3,3.3185135E-3,1.3423593E1,1E0,2.5130716E-5,4.571218E-3,2.5130716E-5,3.535115E-3,-3.000493E-1,2.2860108E-1,5.6541858E-6,4.446659E-4,5.2477117E-3,1E0,-3.702374E-1,-2.954585E-1,-6.4068637E0,1.4329585E-5,2.8681696E-5,2.9705443E-6,1.3364217E-4,7.8716065E-4,3.514221E-3,3.4967323E-3,3.125449E-3,7.544853E-3,6.064902E-1,1.7329359E-4,-5.3255334E0,-7.270818E-1,-2.5128335E-1,-3.1252526E-2,1.3691452E-1,-1.0278398E-1,-2.988093E-1,-1.814775E-1,-4.1917156E-2,2.8913936E-1,1.9914971E-1,1.1588771E1,-5.003873E-1,-9.180888E0,-3.7528077E-1,1.6706957E-1,-2.4656935E-1,-6.296127E-1],"split_indices":[0,2,3,1,0,0,5,4,0,4,0,0,0,3,0,1,5,0,0,0,3,1,1,0,1,1,0,1,1,0,2,0,0,0,0,0,0,0,0,0,0,0,0,0,0,0,0,0,0],"split_type":[0,0,0,0,0,0,0,0,0,0,0,0,0,0,0,0,0,0,0,0,0,0,0,0,0,0,0,0,0,0,0,0,0,0,0,0,0,0,0,0,0,0,0,0,0,0,0,0,0],"sum_hessian":[2.284229E3,2.2786953E3,5.5337334E0,2.099893E3,1.7880229E2,1.2503499E0,4.2833834E0,9.733203E2,1.1265728E3,1.7210037E2,6.701919E0,1.4919673E0,2.7914162E0,2.3964659E1,9.4935565E2,7.621988E2,3.64374E2,1.1192092E2,6.0179455E1,1.3688518E0,5.3330674E0,1.43005905E1,9.664068E0,3.3603564E2,6.1332E2,7.522866E2,9.912169E0,3.0017407E0,3.6137225E2,1.0356452E0,4.297422E0,1.0910023E0,1.3209589E1,4.6591444E0,5.0049243E0,6.0655766E1,2.7537988E2,4.273557E2,1.8596431E2,6.521294E2,1.00157196E2,6.5382876E0,3.3738816E0,1.9945736E0,1.0071671E0,1.9282455E2,1.6854771E2,2.1343668E0,2.1630552E0],"tree_param":{"num_deleted":"0","num_feature":"7","num_nodes":"49","size_leaf_vector":"1"}},{"base_weights":[-7.410458E-1,-4.7966853E-1,-7.6301636E1,-3.3758977E-1,-8.6060727E-1,-4.0871197E1,4.7985002E-2,-6.0118544E-1,-8.727223E-2,-1.4204762E0,-2.2518847E-2,-3.0003202E-1,2.1354364E-1,-2.2921894E0,-4.704008E-1,7.553503E-2,-3.3077928E-1,-2.4028814E0,-1.3783475E0,4.1584716E0,-2.0668967E-1,-1.2672422E1,-9.460861E-1,-2.3343654E-1,-9.607174E-1,-6.7734234E-2,1.0796037E0,-9.3873525E-1,-1.586963E0,2.5269518E0,2.1014838E0,-3.9729282E-1,3.024991E-2,-1.0332323E1,-3.8593882E-1,-7.945396E-2,-3.1452736E-1,-9.761474E-2,2.6710445E-1,-2.9543257E-1,-1.4005464E-1,5.8717582E-2,-3.055995E-1,1.560218E0,5.487202E-2,-2.3188414E-1,-2.992026E-1,-1.1815124E-1,-5.019453E-1,7.559535E-2,7.68083E-1,1.1959754E-1,-1.6407211E-1],"categories":[],"categories_nodes":[],"categories_segments":[],"categories_sizes":[],"default_left":[0,0,0,0,0,0,0,0,0,0,0,0,0,0,0,0,0,0,0,0,0,0,0,0,0,0,0,0,0,0,0,0,0,0,0,0,0,0,0,0,0,0,0,0,0,0,0,0,0,0,0,0,0],"id":10,"left_children":[1,3,5,7,9,-1,11,13,15,17,19,-1,-1,21,23,25,-1,-1,27,29,31,33,35,37,39,41,43,45,47,-1,49,-1,51,-1,-1,-1,-1,-1,-1,-1,-1,-1,-1,-1,-1,-1,-1,-1,-1,-1,-1,-1,-1],"loss_changes":[4.3739402E4,1.1931616E2,3.4942953E4,1.06259766E2,2.8134787E2,0E0,3.7434154E0,1.7244693E2,1.3688623E2,8.875293E1,1.8657272E2,0E0,0E0,7.714585E2,8.454083E1,1.0280696E2,0E0,0E0,3.138092E1,7.1979706E1,6.1464436E1,1.5309935E3,3.257927E0,5.124771E1,2.3607025E0,1.5701353E2,3.2881592E2,3.7365723E-1,2.4187805E1,0E0,6.3374825E0,0E0,4.1119747E1,0E0,0E0,0E0,0E0,0E0,0E0,0E0,0E0,0E0,0E0,0E0,0E0,0E0,0E0,0E0,0E0,0E0,0E0,0E0,0E0],"parents":[2147483647,0,0,1,1,2,2,3,3,4,4,6,6,7,7,8,8,9,9,10,10,13,13,14,14,15,15,18,18,19,19,20,20,21,21,22,22,23,23,24,24,25,25,26,26,27,27,28,28,30,30,32,32],"right_children":[2,4,6,8,10,-1,12,14,16,18,20,-1,-1,22,24,26,-1,-1,28,30,32,34,36,38,40,42,44,46,48,-1,50,-1,52,-1,-1,-1,-1,-1,-1,-1,-1,-1,-1,-1,-1,-1,-1,-1,-1,-1,-1,-1,-1],"split_conditions":[5.750365E-2,3.387187E-3,5.6541858E-6,1.0774995E-3,6.411728E-3,-4.0871197E1,1E0,1E0,5.5456244E-6,2.5130716E-5,4.646289E-3,-3.0003202E-1,2.1354364E-1,2.5130716E-5,6.781362E-4,3.6291827E-3,-3.3077928E-1,-2.4028814E0,5.2477117E-3,1.3086989E-3,7.056241E-3,5.6541858E-6,1.6258722E-4,8.432318E-4,1.0501797E-3,2.3334778E-3,2.7644304E-3,6.37744E-7,1.0154592E-3,2.5269518E0,3.4110132E-4,-3.9729282E-1,1.6869062E-3,-1.0332323E1,-3.8593882E-1,-7.945396E-2,-3.1452736E-1,-9.761474E-2,2.6710445E-1,-2.9543257E-1,-1.4005464E-1,5.8717582E-2,-3.055995E-1,1.560218E0,5.487202E-2,-2.3188414E-1,-2.992026E-1,-1.1815124E-1,-5.019453E-1,7.559535E-2,7.68083E-1,1.1959754E-1,-1.6407211E-1],"split_indices":[0,0,3,1,1,0,5,5,2,4,0,0,0,4,0,1,0,0,1,4,1,3,0,1,1,0,0,1,4,0,3,0,3,0,0,0,0,0,0,0,0,0,0,0,0,0,0,0,0,0,0,0,0],"split_type":[0,0,0,0,0,0,0,0,0,0,0,0,0,0,0,0,0,0,0,0,0,0,0,0,0,0,0,0,0,0,0,0,0,0,0,0,0,0,0,0,0,0,0,0,0,0,0,0,0,0,0,0,0],"sum_hessian":[2.2155266E3,2.208892E3,6.634594E0,1.6102158E3,5.9867615E2,3.2773967E0,3.3571975E0,7.836234E2,8.2659247E2,3.584953E2,2.4018085E2,1.1053789E0,2.2518184E0,5.5069225E1,7.285542E2,7.1316254E2,1.1342989E2,1.0760384E0,3.5741925E2,9.223028E0,2.3095782E2,5.3556833E0,4.971354E1,4.921702E2,2.3638399E2,6.249253E2,8.8237236E1,1.1679624E2,2.4062302E2,1.9940042E0,7.2290235E0,3.9596405E1,1.9136142E2,1.1438674E0,4.211816E0,6.9613833E0,4.2752155E1,4.55604E2,3.65662E1,2.2445607E2,1.192792E1,4.8997092E2,1.3495439E2,1.4910467E1,7.3326775E1,3.421023E1,8.2586006E1,1.6586113E1,2.2403691E2,1.7447537E0,5.48427E0,1.1699249E2,7.436892E1],"tree_param":{"num_deleted":"0","num_feature":"7","num_nodes":"53","size_leaf_vector":"1"}},{"base_weights":[-2.2921385E-1,-3.0935878E-1,3.7778065E1,1.3002814E-1,-4.6880662E-1,2.491747E1,-2.988615E-2,1.4856992E0,-1.2803206E-1,-1.5383867E0,-3.981991E-1,1.4690876E-1,-1.721987E-1,3.3882267E0,1.2428728E0,-2.5453076E-2,-3.2992986E-1,-3.198058E-1,-6.3569717E0,-4.4143915E-1,8.5652345E-1,-2.2767246E0,1.5128554E0,1.910217E0,-7.6959E-2,-3.125705E-1,-8.4727865E-1,-2.700557E-1,3.1542167E-1,9.942135E-1,1.5647028E-1,2.6040357E-1,1.443709E0,-3.7284676E-2,2.7802014E-1,-1.3323778E-1,4.5093607E-2,-3.7808517E-1,-5.6635674E-2],"categories":[],"categories_nodes":[],"categories_segments":[],"categories_sizes":[],"default_left":[0,0,0,0,0,0,0,0,0,0,0,0,0,0,0,0,0,0,0,0,0,0,0,0,0,0,0,0,0,0,0,0,0,0,0,0,0,0,0],"id":11,"left_children":[1,3,5,7,9,-1,11,13,15,17,19,-1,-1,-1,21,23,-1,-1,-1,25,27,-1,29,31,33,35,37,-1,-1,-1,-1,-1,-1,-1,-1,-1,-1,-1,-1],"loss_changes":[6.3942803E3,1.4661957E2,7.5645264E3,1.9532852E2,1.1532153E2,0E0,1.2442374E0,1.985988E2,4.6772305E1,8.566345E2,7.85813E1,0E0,0E0,0E0,2.2189798E2,4.258877E1,0E0,0E0,0E0,7.264456E1,1.7502316E1,0E0,1.5264706E2,2.9313183E1,1.985671E1,6.4594864E1,9.097641E1,0E0,0E0,0E0,0E0,0E0,0E0,0E0,0E0,0E0,0E0,0E0,0E0],"parents":[2147483647,0,0,1,1,2,2,3,3,4,4,6,6,7,7,8,8,9,9,10,10,14,14,15,15,19,19,20,20,22,22,23,23,24,24,25,25,26,26],"right_children":[2,4,6,8,10,-1,12,14,16,18,20,-1,-1,-1,22,24,-1,-1,-1,26,28,-1,30,32,34,36,38,-1,-1,-1,-1,-1,-1,-1,-1,-1,-1,-1,-1],"split_conditions":[5.750365E-2,5.6541858E-6,3.0407208E-4,1E0,1E0,2.491747E1,3.487039E-2,2.2639912E-5,5.5456244E-6,7.056241E-3,1.215483E-2,1.4690876E-1,-1.721987E-1,3.3882267E0,1.0922205E-4,1.18860065E-4,-3.2992986E-1,-3.198058E-1,-6.3569717E0,3.4967323E-3,3.3185135E-3,-2.2767246E0,5.077113E-4,1.2895855E-4,1.0807813E-2,2.5087001E-3,6.411728E-3,-2.700557E-1,3.1542167E-1,9.942135E-1,1.5647028E-1,2.6040357E-1,1.443709E0,-3.7284676E-2,2.7802014E-1,-1.3323778E-1,4.5093607E-2,-3.7808517E-1,-5.6635674E-2],"split_indices":[0,3,3,5,5,0,4,1,2,1,1,0,0,0,1,0,0,0,0,0,0,0,1,1,1,1,1,0,0,0,0,0,0,0,0,0,0,0,0],"split_type":[0,0,0,0,0,0,0,0,0,0,0,0,0,0,0,0,0,0,0,0,0,0,0,0,0,0,0,0,0,0,0,0,0,0,0,0,0,0,0],"sum_hessian":[2.0943396E3,2.0909224E3,3.4172106E0,5.5678546E2,1.5341368E3,1.0103422E0,2.4068682E0,8.827773E1,4.6850775E2,9.371597E1,1.4404209E3,1.2823395E0,1.1245289E0,1.033198E0,8.724454E1,4.2470126E2,4.380647E1,9.254568E1,1.1702924E0,1.3930616E3,4.7359272E1,1.7837311E0,8.546081E1,1.0072545E1,4.1462872E2,1.058667E3,3.3439465E2,4.367805E0,4.2991467E1,2.950552E1,5.5955288E1,8.366941E0,1.7056037E0,3.967963E2,1.783243E1,8.2440436E2,2.3426263E2,2.0494179E2,1.2945287E2],"tree_param":{"num_deleted":"0","num_feature":"7","num_nodes":"39","size_leaf_vector":"1"}},{"base_weights":[-3.6765265E-1,-4.163158E-1,2.5959581E1,-2.5974742E-1,-1.1486395E1,-1.9881555E-1,1.3465022E1,-7.95852E-2,-5.3936726E-1,-4.382044E0,-6.471885E1,-6.2626586E-3,-3.1671435E-1,-1.97878E0,-4.160122E-1,-7.5648117E0,1.7548213E0,-3.088855E1,-1.1470979E-1,-1.1839849E-1,2.5739257E0,-1.2304933E0,-6.532004E0,-5.291601E-1,8.3557767E-1,-1.0918905E0,-7.768004E0,9.982311E-1,3.3043796E-1,4.2834595E-1,-7.899533E-2,2.747631E0,4.4608897E-1,-2.0992296E0,-3.0344436E-1,-6.1311357E-2,-2.3171099E-1,-2.5689167E-1,2.6611537E-1],"categories":[],"categories_nodes":[],"categories_segments":[],"categories_sizes":[],"default_left":[0,0,0,0,0,0,0,0,0,0,0,0,0,0,0,0,0,0,0,0,0,0,0,0,0,0,0,0,0,0,0,0,0,0,0,0,0,0,0],"id":12,"left_children":[1,3,5,7,9,-1,-1,11,13,15,17,19,-1,21,23,25,27,-1,-1,29,31,33,-1,35,37,-1,-1,-1,-1,-1,-1,-1,-1,-1,-1,-1,-1,-1,-1],"loss_changes":[2.568297E3,3.4522363E3,1.893175E3,9.903552E1,1.0221839E4,0E0,0E0,8.5684166E1,1.3598239E2,5.1292065E2,7.829504E3,3.22799E2,0E0,8.7008514E2,1.0112029E2,1.1311447E3,6.1451836E0,0E0,0E0,2.399478E2,3.1897528E2,6.795245E1,0E0,5.1392227E1,5.9264297E0,0E0,0E0,0E0,0E0,0E0,0E0,0E0,0E0,0E0,0E0,0E0,0E0,0E0,0E0],"parents":[2147483647,0,0,1,1,2,2,3,3,4,4,7,7,8,8,9,9,10,10,11,11,13,13,14,14,15,15,16,16,19,19,20,20,21,21,23,23,24,24],"right_children":[2,4,6,8,10,-1,-1,12,14,16,18,20,-1,22,24,26,28,-1,-1,30,32,34,-1,36,38,-1,-1,-1,-1,-1,-1,-1,-1,-1,-1,-1,-1,-1,-1],"split_conditions":[1.784008E-2,5.750365E-2,7.455256E-5,2.3749885E-3,2.818853E-2,-1.9881555E-1,1.3465022E1,5.5456244E-6,1E0,8.475097E-3,6.868166E-3,2.6950939E-3,-3.1671435E-1,5.483004E-3,1.0807813E-2,1.8777177E-2,2.6497109E-2,-3.088855E1,-1.1470979E-1,2.5130716E-5,1.9372323E-3,4.042883E-4,-6.532004E0,1.8356255E-3,1.8101529E-3,-1.0918905E0,-7.768004E0,9.982311E-1,3.3043796E-1,4.2834595E-1,-7.899533E-2,2.747631E0,4.4608897E-1,-2.0992296E0,-3.0344436E-1,-6.1311357E-2,-2.3171099E-1,-2.5689167E-1,2.6611537E-1],"split_indices":[2,0,0,0,4,0,0,2,5,1,3,1,0,1,1,4,4,0,0,4,0,4,0,4,4,0,0,0,0,0,0,0,0,0,0,0,0,0,0],"split_type":[0,0,0,0,0,0,0,0,0,0,0,0,0,0,0,0,0,0,0,0,0,0,0,0,0,0,0,0,0,0,0,0,0,0,0,0,0,0,0],"sum_hessian":[1.99522E3,1.9925212E3,2.6987815E0,1.9657424E3,2.6778788E1,1.5222452E0,1.1765363E0,1.196262E3,7.694804E2,2.4580603E1,2.1981843E0,1.1136183E3,8.264369E1,5.9550663E1,7.0992975E2,1.603281E1,8.547793E0,1.0021313E0,1.1960529E0,1.0681503E3,4.5468044E1,5.8404964E1,1.1456982E0,6.516001E2,5.8329605E1,1.4192063E1,1.840747E0,1.3076159E0,7.2401776E0,9.07748E1,9.773755E2,5.3898993E0,4.0078144E1,1.004515E0,5.740045E1,2.797949E2,3.7180524E2,1.2605536E0,5.706905E1],"tree_param":{"num_deleted":"0","num_feature":"7","num_nodes":"39","size_leaf_vector":"1"}},{"base_weights":[-2.8395754E-1,-3.269446E-1,1.5769588E0,-2.7537572E-1,-5.3616695E0,6.439612E-1,8.903169E0,-1.8660843E-1,-1.357494E0,-5.731095E-1,-6.5226026E0,1.3497943E-1,1.6089579E0,6.834524E0,-3.1302842E-1,4.1314295E-1,-2.7851215E-1,-1.0884144E0,-1.6028668E0,-1.3250792E0,5.775528E-1,8.0517924E-1,1.5116906E0,-3.4669366E-1,1.9202317E-1,1.3326734E-1,1.649094E0,-9.0420425E-1,-1.897785E-1,-3.1129873E-1,-6.1617917E-1,-2.017484E0,-4.2593682E-1,5.3099575E-3,-4.9443647E-1,-2.743477E-1,2.946026E-1,8.815905E-1,-1.1738588E-2,5.4036164E-1,-2.3734294E-2,1.1857866E0,2.3888126E-1,-2.3920022E-1,-2.934938E-1,-7.6135364E-4,-1.1678327E-1,1.0207832E-2,2.8858727E-1],"categories":[],"categories_nodes":[],"categories_segments":[],"categories_sizes":[],"default_left":[0,0,0,0,0,0,0,0,0,0,0,0,0,0,0,0,0,0,0,0,0,0,0,0,0,0,0,0,0,0,0,0,0,0,0,0,0,0,0,0,0,0,0,0,0,0,0,0,0],"id":13,"left_children":[1,3,5,7,9,11,13,15,17,-1,-1,19,21,-1,23,25,27,29,31,33,35,37,-1,-1,-1,39,41,43,45,-1,-1,-1,-1,-1,-1,-1,-1,47,-1,-1,-1,-1,-1,-1,-1,-1,-1,-1,-1],"loss_changes":[1.5941406E2,5.0281946E2,3.0199512E2,1.845299E2,1.0687098E3,1.9926762E1,6.4765717E2,9.817293E1,7.8738403E0,0E0,0E0,1.8820946E1,3.473471E1,0E0,3.94873E0,8.168838E1,8.5507904E1,1.4261932E0,5.9920197E1,2.9802132E0,1.4258072E1,8.466978E-1,0E0,0E0,0E0,6.892053E1,8.256718E1,7.358856E-1,5.053247E1,0E0,0E0,0E0,0E0,0E0,0E0,0E0,0E0,7.5653934E-1,0E0,0E0,0E0,0E0,0E0,0E0,0E0,0E0,0E0,0E0,0E0],"parents":[2147483647,0,0,1,1,2,2,3,3,4,4,5,5,6,6,7,7,8,8,11,11,12,12,14,14,15,15,16,16,17,17,18,18,19,19,20,20,21,21,25,25,26,26,27,27,28,28,37,37],"right_children":[2,4,6,8,10,12,14,16,18,-1,-1,20,22,-1,24,26,28,30,32,34,36,38,-1,-1,-1,40,42,44,46,-1,-1,-1,-1,-1,-1,-1,-1,48,-1,-1,-1,-1,-1,-1,-1,-1,-1,-1,-1],"split_conditions":[1.7535998E-2,5.750365E-2,2.818853E-2,5.5456244E-6,1.8071722E-2,3.3428065E-2,1.67021E-2,3.3346182E-4,1.784008E-2,-5.731095E-1,-6.5226026E0,1E0,5.5456244E-6,6.834524E0,1E0,3.5782473E-4,5.149279E-4,4.9855094E-3,2.5130716E-5,5.6104856E-3,2.9233065E-3,8.05074E-3,1.5116906E0,-3.4669366E-1,1.9202317E-1,3.0060624E-5,2.628941E-4,6.37744E-7,1.6189067E-3,-3.1129873E-1,-6.1617917E-1,-2.017484E0,-4.2593682E-1,5.3099575E-3,-4.9443647E-1,-2.743477E-1,2.946026E-1,1.0877197E-2,-1.1738588E-2,5.4036164E-1,-2.3734294E-2,1.1857866E0,2.3888126E-1,-2.3920022E-1,-2.934938E-1,-7.6135364E-4,-1.1678327E-1,1.0207832E-2,2.8858727E-1],"split_indices":[1,0,4,2,4,0,3,0,2,0,0,5,2,0,5,1,1,0,4,4,0,3,0,0,0,0,0,1,4,0,0,0,0,0,0,0,0,4,0,0,0,0,0,0,0,0,0,0,0],"split_type":[0,0,0,0,0,0,0,0,0,0,0,0,0,0,0,0,0,0,0,0,0,0,0,0,0,0,0,0,0,0,0,0,0,0,0,0,0,0,0,0,0,0,0,0,0,0,0,0,0],"sum_hessian":[1.9853473E3,1.941327E3,4.402023E1,1.9226884E3,1.86387E1,4.001251E1,4.00772E0,1.7780089E3,1.4467947E2,1.6317303E1,2.3213975E0,2.6941992E1,1.3070518E1,1.0119342E0,2.995786E0,2.3578857E2,1.5422203E3,7.159883E1,7.308064E1,5.803173E0,2.1138819E1,1.158943E1,1.4810874E0,1.4772663E0,1.5185196E0,1.9315689E2,4.2631687E1,1.9040657E2,1.3518137E3,6.999433E1,1.6044999E0,1.2888505E0,7.1791794E1,1.3086716E0,4.4945016E0,4.239218E0,1.68996E1,1.0587121E1,1.0023091E0,2.097205E1,1.7218484E2,1.0536691E1,3.2094997E1,8.278419E1,1.0762238E2,6.9785333E2,6.539604E2,1.0402153E0,9.5469055E0],"tree_param":{"num_deleted":"0","num_feature":"7","num_nodes":"49","size_leaf_vector":"1"}},{"base_weights":[-2.2040582E-1,-2.5823677E-1,1.8105105E0,-2.1654502E-1,-3.4469209E0,6.695705E-1,1.1751159E1,-1.4378467E-1,-1.3022768E0,-4.5802394E-1,-1.9344802E0,1.0953472E-1,1.7248021E0,6.147957E0,-1.1753266E-1,5.989099E-1,-1.9354782E-1,-1.0663506E0,-1.4988056E0,-1.2408696E0,5.495542E-1,1.612148E0,7.9662263E-1,7.991327E-1,-2.0326545E0,-2.5033823E-1,3.0073473E-1,-1.0003058E0,-4.7268257E-1,-1.984396E0,-3.796989E-1,4.4016056E-3,-1.6192231E0,-2.5490862E-1,2.8666177E-1,2.6803517E-1,-9.964673E-3,-1.2052555E-1,4.0836546E-1,-4.7352683E-2,-3.6742952E-1,1.2332342E0,2.592854E-2,-3.0570966E-1,-1.0159824E-2,-6.310351E-1,-2.4078591E-1],"categories":[],"categories_nodes":[],"categories_segments":[],"categories_sizes":[],"default_left":[0,0,0,0,0,0,0,0,0,0,0,0,0,0,0,0,0,0,0,0,0,0,0,0,0,0,0,0,0,0,0,0,0,0,0,0,0,0,0,0,0,0,0,0,0,0,0],"id":14,"left_children":[1,3,5,7,9,11,13,15,17,-1,-1,19,21,-1,-1,23,25,27,29,31,33,-1,35,37,-1,39,41,43,-1,-1,-1,-1,45,-1,-1,-1,-1,-1,-1,-1,-1,-1,-1,-1,-1,-1,-1],"loss_changes":[1.4466042E2,2.4430481E2,3.8279144E2,1.4363486E2,1.2687253E2,1.8697605E1,3.7807388E2,6.3217735E1,3.6976624E0,0E0,0E0,1.3722308E1,3.301856E1,0E0,0E0,1.6408109E2,4.5013237E1,2.8629684E-1,6.3008316E1,2.7316866E0,1.0608652E1,0E0,8.2945967E-1,7.176828E1,0E0,1.2927582E2,1.3472383E2,9.021416E-1,0E0,0E0,0E0,0E0,4.7389984E-2,0E0,0E0,0E0,0E0,0E0,0E0,0E0,0E0,0E0,0E0,0E0,0E0,0E0,0E0],"parents":[2147483647,0,0,1,1,2,2,3,3,4,4,5,5,6,6,7,7,8,8,11,11,12,12,15,15,16,16,17,17,18,18,19,19,20,20,22,22,23,23,25,25,26,26,27,27,32,32],"right_children":[2,4,6,8,10,12,14,16,18,-1,-1,20,22,-1,-1,24,26,28,30,32,34,-1,36,38,-1,40,42,44,-1,-1,-1,-1,46,-1,-1,-1,-1,-1,-1,-1,-1,-1,-1,-1,-1,-1,-1],"split_conditions":[1.7535998E-2,5.750365E-2,2.818853E-2,5.5456244E-6,1.9603701E-2,3.3428065E-2,2.9673638E-2,4.7674195E-5,1.784008E-2,-4.5802394E-1,-1.9344802E0,1E0,1.0144934E-2,6.147957E0,-1.1753266E-1,2.396149E-3,6.411728E-3,4.7233417E-3,4.7674195E-5,5.6104856E-3,2.9233065E-3,1.612148E0,8.05074E-3,1.3562129E-4,-2.0326545E0,4.1265753E-3,4.646289E-3,3.387187E-3,-4.7268257E-1,-1.984396E0,-3.796989E-1,4.4016056E-3,4.4564987E-3,-2.5490862E-1,2.8666177E-1,2.6803517E-1,-9.964673E-3,-1.2052555E-1,4.0836546E-1,-4.7352683E-2,-3.6742952E-1,1.2332342E0,2.592854E-2,-3.0570966E-1,-1.0159824E-2,-6.310351E-1,-2.4078591E-1],"split_indices":[1,0,4,2,4,0,3,4,2,0,0,5,4,0,0,0,1,0,4,4,0,0,3,1,0,0,0,0,0,0,0,0,3,0,0,0,0,0,0,0,0,0,0,0,0,0,0],"split_type":[0,0,0,0,0,0,0,0,0,0,0,0,0,0,0,0,0,0,0,0,0,0,0,0,0,0,0,0,0,0,0,0,0,0,0,0,0,0,0,0,0,0,0,0,0,0,0],"sum_hessian":[1.8757412E3,1.8422966E3,3.344459E1,1.8195739E3,2.2722853E1,3.0958662E1,2.4859302E0,1.7063549E3,1.1321898E2,1.4777392E1,7.9454603E0,2.094596E1,1.0012703E1,1.0455481E0,1.4403822E0,1.06459236E2,1.5998956E3,5.4372513E1,5.884647E1,4.7004404E0,1.624552E1,1.0591484E0,8.953554E0,1.0451324E2,1.9460009E0,1.4354623E3,1.6443335E2,5.0754486E1,3.6180277E0,1.3718688E0,5.7474598E1,1.3110446E0,3.389396E0,3.407716E0,1.2837804E1,7.949345E0,1.0042088E0,3.3412766E1,7.110047E1,1.3120773E3,1.23384926E2,7.788242E0,1.5664511E2,4.9736343E1,1.0181426E0,1.1384614E0,2.2509346E0],"tree_param":{"num_deleted":"0","num_feature":"7","num_nodes":"47","size_leaf_vector":"1"}},{"base_weights":[-1.623481E-1,-1.959419E-1,2.018357E0,-1.3792525E-1,-1.2813867E0,6.8376005E-2,2.9442306E0,-1.07322596E-1,-1.6647458E0,-3.1318435E-1,-1.4690611E0,-1.3740704E0,6.007127E-1,9.093511E-2,-2.4612729E-1,-4.3714193E-1,-6.3843584E-1,-1.9632723E0,-3.5111752E-1,5.224548E-1,-2.5268505E0,-2.4559473E-1,2.8605273E-1,-2.1979945E-2,1.4517565E0,-8.156856E-1,-4.8836183E-2,-3.241261E-1,-8.9834523E-1,2.2602136E-1,-3.4984313E-2,1.1399257E0,2.2127675E-1,-1.3472238E-1,-2.9677308E-1,5.212841E-1,-5.24203E-2],"categories":[],"categories_nodes":[],"categories_segments":[],"categories_sizes":[],"default_left":[0,0,0,0,0,0,0,0,0,0,0,0,0,0,0,0,0,0,0,0,0,0,0,0,0,0,0,0,0,0,0,0,0,0,0,0,0],"id":15,"left_children":[1,3,5,7,9,11,-1,13,15,-1,17,19,21,23,25,-1,-1,-1,-1,-1,27,-1,-1,29,31,33,35,-1,-1,-1,-1,-1,-1,-1,-1,-1,-1],"loss_changes":[1.2977641E2,1.0941125E2,4.07984E2,7.705922E1,2.3955078E0,1.8110632E1,0E0,4.46481E1,1.7097473E-2,0E0,6.326825E1,2.7287325E1,9.362539E0,1.02756035E2,1.0717116E2,0E0,0E0,0E0,0E0,0E0,1.8682098E-1,0E0,0E0,4.5456886E1,8.311359E1,1.5170258E1,1.5992212E2,0E0,0E0,0E0,0E0,0E0,0E0,0E0,0E0,0E0,0E0],"parents":[2147483647,0,0,1,1,2,2,3,3,4,4,5,5,7,7,8,8,10,10,11,11,12,12,13,13,14,14,20,20,23,23,24,24,25,25,26,26],"right_children":[2,4,6,8,10,12,-1,14,16,-1,18,20,22,24,26,-1,-1,-1,-1,-1,28,-1,-1,30,32,34,36,-1,-1,-1,-1,-1,-1,-1,-1,-1,-1],"split_conditions":[1.7535998E-2,5.5456244E-6,5.750365E-2,1.5697224E-2,1.784008E-2,1E0,2.9442306E0,1.1767667E-3,1.1890904E-3,-3.1318435E-1,6.879662E-5,5.6104856E-3,2.9233065E-3,1.4314834E-3,2.0961973E-3,-4.3714193E-1,-6.3843584E-1,-1.9632723E0,-3.5111752E-1,5.224548E-1,2.1991072E-2,-2.4559473E-1,2.8605273E-1,2.5130716E-5,1.0351189E-3,1.3365851E-3,1.7537378E-3,-3.241261E-1,-8.9834523E-1,2.2602136E-1,-3.4984313E-2,1.1399257E0,2.2127675E-1,-1.3472238E-1,-2.9677308E-1,5.212841E-1,-5.24203E-2],"split_indices":[1,2,0,0,2,5,0,0,1,0,4,4,0,1,1,0,0,0,0,0,0,0,0,4,0,0,0,0,0,0,0,0,0,0,0,0,0],"split_type":[0,0,0,0,0,0,0,0,0,0,0,0,0,0,0,0,0,0,0,0,0,0,0,0,0,0,0,0,0,0,0,0,0,0,0,0,0],"sum_hessian":[1.7650961E3,1.7392136E3,2.5882456E1,1.6520398E3,8.7173874E1,2.1510675E1,4.3717813E0,1.6206272E3,3.1412563E1,4.1381737E1,4.5792133E1,5.372331E0,1.6138344E1,6.675278E2,9.5309937E2,2.4555532E1,6.8570294E0,1.3828335E0,4.44093E1,1.3130037E0,4.0593276E0,2.9499037E0,1.318844E1,6.172915E2,5.023632E1,2.4440215E2,7.0869727E2,1.800531E0,2.2587965E0,6.638736E1,5.509041E2,1.0708625E1,3.9527695E1,7.9679825E1,1.6472232E2,4.5813816E1,6.628834E2],"tree_param":{"num_deleted":"0","num_feature":"7","num_nodes":"37","size_leaf_vector":"1"}},{"base_weights":[-1.2793939E-1,-1.57842E-1,2.591429E0,-1.1059725E-1,-1.2901292E0,6.2532663E-1,5.0109468E0,5.017133E-3,-4.0355867E-1,-3.0760074E-1,-1.4914544E0,-1.8653278E-1,2.1967325E0,-3.3111755E-2,6.276036E-1,-1.255811E0,-3.059177E-1,-1.7969977E0,-3.3156708E-1,-1.5713015E0,4.156624E-1,1.7318089E0,2.894264E-1,2.0928316E-2,-9.8020357E-1,1.2829968E0,2.9784238E-1,-6.0500336E-1,-4.018794E-1,-1.8471679E-1,-5.566844E-1,-1.4464137E-1,-5.9556746E-1,-2.1927938E-1,2.6238638E-1,-7.257988E-2,4.8863715E-1,-4.4980636E-3,5.530075E-1,-1.3582962E0,-2.2838585E-1,2.6865032E-1,5.2477396E-1,-2.2122188E-1,2.0311317E-1,1.3281076E-1,-2.5866678E-1,-9.224388E-2,1.2318379E-1,-3.0936077E-1,8.942647E-3,1.848451E-1,1.9265713E-2],"categories":[],"categories_nodes":[],"categories_segments":[],"categories_sizes":[],"default_left":[0,0,0,0,0,0,0,0,0,0,0,0,0,0,0,0,0,0,0,0,0,0,0,0,0,0,0,0,0,0,0,0,0,0,0,0,0,0,0,0,0,0,0,0,0,0,0,0,0,0,0,0,0],"id":16,"left_children":[1,3,5,7,9,11,-1,13,15,-1,17,19,21,23,25,27,29,-1,-1,31,33,-1,35,37,39,41,43,45,-1,47,49,-1,-1,-1,-1,-1,51,-1,-1,-1,-1,-1,-1,-1,-1,-1,-1,-1,-1,-1,-1,-1,-1],"loss_changes":[1.380792E2,8.949027E1,5.020534E2,5.4517776E1,2.04348E0,2.241884E1,0E0,2.7440489E1,3.7516846E1,0E0,5.570675E1,1.0907328E1,3.8945526E1,5.577517E1,1.4034929E1,1.7248917E0,1.23573E1,0E0,0E0,8.173075E-1,5.5652447E0,0E0,6.407515E-1,6.7557526E1,4.2235554E1,2.4131126E0,1.8432087E1,2.30231E0,0E0,2.0434904E1,3.7068604E1,0E0,0E0,0E0,0E0,0E0,1.7266047E-1,0E0,0E0,0E0,0E0,0E0,0E0,0E0,0E0,0E0,0E0,0E0,0E0,0E0,0E0,0E0,0E0],"parents":[2147483647,0,0,1,1,2,2,3,3,4,4,5,5,7,7,8,8,10,10,11,11,12,12,13,13,14,14,15,15,16,16,19,19,20,20,22,22,23,23,24,24,25,25,26,26,27,27,29,29,30,30,36,36],"right_children":[2,4,6,8,10,12,-1,14,16,-1,18,20,22,24,26,28,30,-1,-1,32,34,-1,36,38,40,42,44,46,-1,48,50,-1,-1,-1,-1,-1,52,-1,-1,-1,-1,-1,-1,-1,-1,-1,-1,-1,-1,-1,-1,-1,-1],"split_conditions":[1.7535998E-2,5.5456244E-6,2.818853E-2,3.1412374E-3,1.784008E-2,2.6006257E-2,5.0109468E0,7.544853E-3,1E0,-3.0760074E-1,8.864199E-5,1E0,7.882325E-3,4.430388E-3,5.6814486E-3,4.7128187E-3,3.4593097E-3,-1.7969977E0,-3.3156708E-1,1.5697224E-2,2.9233065E-3,1.7318089E0,2.3623496E-5,6.0435305E-3,1.1299796E-3,1.6071687E-4,8.998249E-3,7.445816E-4,-4.018794E-1,3.125449E-3,6.7563434E-3,-1.4464137E-1,-5.9556746E-1,-2.1927938E-1,2.6238638E-1,-7.257988E-2,7.5688665E-3,-4.4980636E-3,5.530075E-1,-1.3582962E0,-2.2838585E-1,2.6865032E-1,5.2477396E-1,-2.2122188E-1,2.0311317E-1,1.3281076E-1,-2.5866678E-1,-9.224388E-2,1.2318379E-1,-3.0936077E-1,8.942647E-3,1.848451E-1,1.9265713E-2],"split_indices":[1,2,4,4,2,0,0,1,5,0,4,5,4,0,0,4,0,0,0,0,0,0,3,1,4,3,1,3,0,1,1,0,0,0,0,0,3,0,0,0,0,0,0,0,0,0,0,0,0,0,0,0,0],"split_type":[0,0,0,0,0,0,0,0,0,0,0,0,0,0,0,0,0,0,0,0,0,0,0,0,0,0,0,0,0,0,0,0,0,0,0,0,0,0,0,0,0,0,0,0,0,0,0,0,0,0,0,0,0],"sum_hessian":[1.6920225E3,1.6745508E3,1.7471674E1,1.6085325E3,6.6018425E1,1.625173E1,1.2199436E0,1.154072E3,4.5446045E2,3.1146214E1,3.4872208E1,1.1296659E1,4.95507E0,1.0883644E3,6.570758E1,4.549541E1,4.0896503E2,1.6100986E0,3.326211E1,2.9359808E0,8.360679E0,1.0186342E0,3.9364357E0,1.0305406E3,5.7823677E1,2.102673E1,4.468085E1,6.1268E0,3.936861E1,2.7687973E2,1.3208533E2,1.4046639E0,1.5313169E0,2.2205658E0,6.140113E0,1.0149035E0,2.9215322E0,1.011593E3,1.8947706E1,2.2169564E0,5.560672E1,1.3078203E1,7.948526E0,1.1725292E1,3.295556E1,1.0655383E0,5.0612617E0,2.2994608E2,4.6933636E1,7.259341E1,5.9491917E1,1.8991839E0,1.0223483E0],"tree_param":{"num_deleted":"0","num_feature":"7","num_nodes":"53","size_leaf_vector":"1"}},{"base_weights":[-9.897448E-2,-1.24214046E-1,2.387439E0,-8.550316E-2,-1.3085371E0,-4.511194E-1,4.470388E0,-1.3075167E-3,-3.6933368E-1,-1.7304531E0,-3.2645142E-1,2.3281603E-1,-1.3494064E0,-6.8646714E-2,9.699556E-1,-9.5288986E-1,1.4718485E-1,-8.941687E-1,-2.093777E0,-1.5037264E-1,7.1852535E-1,1.1454852E-2,-9.6947056E-1,2.346502E0,3.3753753E-1,-1.5072461E0,-8.941895E-1,1.3492507E0,-9.840657E-2,-2.8477943E-1,-2.1599645E-2,-1.9216864E0,7.196257E-1,-1.9815976E-2,4.948654E-1,-1.6218235E-1,-3.0295718E-1,3.8433984E-1,1.6487592E0,-2.273328E-1,4.715659E-1,-8.8960946E-2,-3.592457E-1,2.5239107E-1,1.4338924E0,-5.0777435E-1,8.7762386E-2,-6.973313E-1,-1.9719495E-1,-8.5882224E-2,2.6569772E-1],"categories":[],"categories_nodes":[],"categories_segments":[],"categories_sizes":[],"default_left":[0,0,0,0,0,0,0,0,0,0,0,0,0,0,0,0,0,0,0,0,0,0,0,0,0,0,0,0,0,0,0,0,0,0,0,0,0,0,0,0,0,0,0,0,0,0,0,0,0,0,0],"id":17,"left_children":[1,3,5,7,9,11,-1,13,15,17,-1,19,-1,21,23,25,27,29,-1,31,-1,33,35,37,39,-1,41,43,45,-1,-1,47,49,-1,-1,-1,-1,-1,-1,-1,-1,-1,-1,-1,-1,-1,-1,-1,-1,-1,-1],"loss_changes":[1.0230068E2,7.370166E1,5.8867346E2,3.728253E1,2.8484879E0,4.069523E1,0E0,7.882729E1,1.0772171E2,6.2964058E1,0E0,1.1300849E1,0E0,8.133783E1,6.723571E1,3.558943E1,5.6283215E1,5.9963036E-1,0E0,2.0118334E1,0E0,1.316488E2,1.0483627E0,7.493176E1,7.51615E1,0E0,2.9834808E1,5.232126E1,9.950635E1,0E0,0E0,6.500473E-1,1.736733E0,0E0,0E0,0E0,0E0,0E0,0E0,0E0,0E0,0E0,0E0,0E0,0E0,0E0,0E0,0E0,0E0,0E0,0E0],"parents":[2147483647,0,0,1,1,2,2,3,3,4,4,5,5,7,7,8,8,9,9,11,11,13,13,14,14,15,15,16,16,17,17,19,19,21,21,22,22,23,23,24,24,26,26,27,27,28,28,31,31,32,32],"right_children":[2,4,6,8,10,12,-1,14,16,18,-1,20,-1,22,24,26,28,30,-1,32,-1,34,36,38,40,-1,42,44,46,-1,-1,48,50,-1,-1,-1,-1,-1,-1,-1,-1,-1,-1,-1,-1,-1,-1,-1,-1,-1,-1],"split_conditions":[1.7535998E-2,5.5456244E-6,5.750365E-2,3.422867E-3,2.5130716E-5,2.3724506E-2,4.470388E0,3.92278E-3,6.0435305E-3,1.3983124E-2,-3.2645142E-1,3.2523986E-2,-1.3494064E0,2.5047574E-3,2.9233065E-3,3.639295E-4,4.571218E-3,2.5271277E-3,-2.093777E0,1E0,7.1852535E-1,3.010673E-3,2.549983E-3,4.22309E-3,4.747232E-3,-1.5072461E0,3.8732414E-3,4.3641245E-3,7.056241E-3,-2.8477943E-1,-2.1599645E-2,9.2885755E-3,3.2751283E-3,-1.9815976E-2,4.948654E-1,-1.6218235E-1,-3.0295718E-1,3.8433984E-1,1.6487592E0,-2.273328E-1,4.715659E-1,-8.8960946E-2,-3.592457E-1,2.5239107E-1,1.4338924E0,-5.0777435E-1,8.7762386E-2,-6.973313E-1,-1.9719495E-1,-8.5882224E-2,2.6569772E-1],"split_indices":[1,2,0,0,4,4,0,1,1,1,0,2,0,0,0,4,0,0,0,5,0,1,0,1,1,0,0,0,1,0,0,4,4,0,0,0,0,0,0,0,0,0,0,0,0,0,0,0,0,0,0],"split_type":[0,0,0,0,0,0,0,0,0,0,0,0,0,0,0,0,0,0,0,0,0,0,0,0,0,0,0,0,0,0,0,0,0,0,0,0,0,0,0,0,0,0,0,0,0,0,0,0,0,0,0],"sum_hessian":[1.6244083E3,1.6090251E3,1.5383162E1,1.5591354E3,4.988984E1,1.332464E1,2.0585215E0,1.203217E3,3.5591833E2,1.476599E1,3.512385E1,1.220452E1,1.1201206E0,1.1260739E3,7.714314E1,1.6671782E2,1.8920053E2,1.3746185E1,1.0198041E0,1.115766E1,1.0468602E0,1.0350262E3,9.104761E1,2.3431293E1,5.371185E1,1.1673081E0,1.655505E2,3.1335018E1,1.5786551E2,1.273799E1,1.0081958E0,3.2769537E0,7.880706E0,9.891818E2,4.5844406E1,9.074265E0,8.197334E1,1.8559694E1,4.8716006E0,2.8663267E1,2.5048584E1,5.63968E1,1.0915371E2,2.8378227E1,2.9567907E0,3.0434168E1,1.2743134E2,1.8494241E0,1.4275295E0,1.0138965E0,6.8668094E0],"tree_param":{"num_deleted":"0","num_feature":"7","num_nodes":"51","size_leaf_vector":"1"}},{"base_weights":[-9.158658E-2,-6.3308276E-2,-1.0990688E0,-8.8131644E-2,1.159259E0,-1.2426107E0,3.8143125E-1,-6.568574E-2,-1.3773644E0,-3.2289329E0,1.8280947E0,-8.43199E-1,-1.3566555E0,2.56389E-1,-1.3792723E-1,7.994125E-2,-1.4747483E0,-6.305121E-2,-1.2692677E0,2.8598538E-1,1.0847942E0,-2.754659E-1,-6.1699674E-3,-1.8162174E0,-3.331072E-1,1.5977122E-1,2.9350762E0,-6.9631743E-1,-5.5049133E-2,-3.3612823E-1,-1.9513072E0,-2.4567705E-1,-8.4054893E-1,-2.1688233E-1,9.6998475E-2,1.5244162E0,5.572566E-1,-1.8225247E-2,-2.6904216E-1,1.0647642E-1,-4.65689E-2,-8.2959E-1,-3.977626E-1],"categories":[],"categories_nodes":[],"categories_segments":[],"categories_sizes":[],"default_left":[0,0,0,0,0,0,0,0,0,0,0,0,0,0,0,0,0,0,0,0,0,0,0,0,0,0,0,0,0,0,0,0,0,0,0,0,0,0,0,0,0,0,0],"id":18,"left_children":[1,3,5,7,9,11,-1,13,15,17,19,21,23,25,27,-1,29,-1,-1,-1,-1,-1,-1,31,-1,33,35,37,39,-1,41,-1,-1,-1,-1,-1,-1,-1,-1,-1,-1,-1,-1],"loss_changes":[4.5718742E1,4.7577717E1,1.6489704E1,4.4304977E1,9.7479355E1,7.6110077E-1,0E0,3.514446E1,4.5876236E0,1.2686146E1,3.989865E1,7.174511E-1,1.4798279E0,7.116956E1,5.702997E1,0E0,2.0165863E0,0E0,0E0,0E0,0E0,0E0,0E0,6.7542076E0,0E0,3.8957993E1,1.271476E1,2.0242744E1,4.4200977E1,0E0,1.0507698E0,0E0,0E0,0E0,0E0,0E0,0E0,0E0,0E0,0E0,0E0,0E0,0E0],"parents":[2147483647,0,0,1,1,2,2,3,3,4,4,5,5,7,7,8,8,9,9,10,10,11,11,12,12,13,13,14,14,16,16,23,23,25,25,26,26,27,27,28,28,30,30],"right_children":[2,4,6,8,10,12,-1,14,16,18,20,22,24,26,28,-1,30,-1,-1,-1,-1,-1,-1,32,-1,34,36,38,40,-1,42,-1,-1,-1,-1,-1,-1,-1,-1,-1,-1,-1,-1],"split_conditions":[5.5456244E-6,1.215483E-2,3.2523986E-2,7.7852304E-3,1E0,7.544853E-3,3.8143125E-1,4.170728E-4,1.2587052E-6,1.7240051E-2,5.750365E-2,2.4605978E-3,2.5130716E-5,5.425691E-4,7.8716065E-4,7.994125E-2,1.9929162E-3,-6.305121E-2,-1.2692677E0,2.8598538E-1,1.0847942E0,-2.754659E-1,-6.1699674E-3,1.784008E-2,-3.331072E-1,6.37744E-7,3.753665E-4,4.862213E-4,1.0913563E-3,-3.3612823E-1,1.4329585E-5,-2.4567705E-1,-8.4054893E-1,-2.1688233E-1,9.6998475E-2,1.5244162E0,5.572566E-1,-1.8225247E-2,-2.6904216E-1,1.0647642E-1,-4.65689E-2,-8.2959E-1,-3.977626E-1],"split_indices":[2,1,2,0,5,1,0,0,1,0,0,0,4,1,1,0,1,0,0,0,0,0,0,2,0,1,0,0,0,0,3,0,0,0,0,0,0,0,0,0,0,0,0],"split_type":[0,0,0,0,0,0,0,0,0,0,0,0,0,0,0,0,0,0,0,0,0,0,0,0,0,0,0,0,0,0,0,0,0,0,0,0,0,0,0,0,0,0,0],"sum_hessian":[1.6061777E3,1.5633597E3,4.2818E1,1.533158E3,3.0201775E1,4.0821907E1,1.9960957E0,1.507955E3,2.5202965E1,3.4882007E0,2.6713573E1,1.0931343E1,2.9890562E1,2.758009E2,1.232154E3,1.3124576E0,2.3890507E1,1.1707264E0,2.3174744E0,1.8966488E1,7.7470856E0,9.911279E0,1.0200644E0,8.205692E0,2.168487E1,2.672221E2,8.578809E0,1.5828812E2,1.073866E3,1.5624667E1,8.26584E0,4.988721E0,3.2169712E0,4.1238583E1,2.2598352E2,1.6254709E0,6.9533377E0,3.827061E1,1.2001751E2,2.1038025E2,8.6348566E2,2.104905E0,6.160935E0],"tree_param":{"num_deleted":"0","num_feature":"7","num_nodes":"43","size_leaf_vector":"1"}},{"base_weights":[-7.4981004E-2,1.1820536E0,-9.1689035E-2,4.342209E0,1.5361172E-1,-6.863129E-1,-4.592252E-2,1.6641951E0,5.4897696E-2,-3.666163E-1,1.330887E0,-1.6046323E0,-4.5987007E-1,-2.1997122E-2,-9.9947935E-1,-2.574607E-1,7.932069E-2,2.9033976E-2,1.7014357E0,-7.943949E-1,-4.9336915E0,1.7187408E-1,-7.210108E-1,9.1005385E-1,-6.116413E-2,-3.564877E-1,4.3117943E-1,1.6727027E-1,-1.4463864E-1,6.3420564E-1,1.7642862E-1,-9.216214E-1,2.1270658E-1,-2.5232754E0,-2.1248733E-1,-5.0292724E-1,1.1769124E0,-7.93647E-1,3.9469397E-1,4.4903034E-1,1.8581321E0,-1.17813446E-1,3.5709685E-1,-1.8266048E-1,4.9531188E-2,-3.0812818E-1,-6.907778E-2,6.031755E-3,-2.7474353E-1,6.609982E-1,9.782268E-2,-3.515045E-2,-2.6721406E-1,-2.307522E-1,2.529553E-1,1.7891356E0,3.090607E-1,-1.224213E-2,-4.1013065E-1,1.2584106E0,5.029321E-2],"categories":[],"categories_nodes":[],"categories_segments":[],"categories_sizes":[],"default_left":[0,0,0,0,0,0,0,0,0,0,0,0,0,0,0,0,0,0,0,0,0,0,0,0,0,0,0,0,0,0,0,0,0,0,0,0,0,0,0,0,0,0,0,0,0,0,0,0,0,0,0,0,0,0,0,0,0,0,0,0,0],"id":19,"left_children":[1,3,5,7,9,11,13,-1,-1,15,17,19,21,23,25,-1,27,-1,29,31,33,35,37,39,41,-1,-1,-1,43,-1,-1,45,-1,-1,-1,47,49,51,-1,53,55,57,59,-1,-1,-1,-1,-1,-1,-1,-1,-1,-1,-1,-1,-1,-1,-1,-1,-1,-1],"loss_changes":[3.3232685E1,6.68036E1,4.235121E1,2.4350128E1,1.0715474E1,2.2391998E1,3.2993958E1,0E0,0E0,2.7788134E0,2.2744513E0,5.434416E1,1.5075449E1,5.1629578E1,1.7994617E1,0E0,8.7316203E-1,0E0,6.13328E-1,4.2043104E0,5.334539E1,1.911615E1,1.0558712E1,2.4095558E1,3.2188675E1,0E0,0E0,0E0,9.3931663E-1,0E0,0E0,1.0432892E0,0E0,0E0,0E0,3.6987357E0,9.125081E0,4.0143585E0,0E0,1.9708162E1,5.6205135E1,1.1496898E2,1.1713948E2,0E0,0E0,0E0,0E0,0E0,0E0,0E0,0E0,0E0,0E0,0E0,0E0,0E0,0E0,0E0,0E0,0E0,0E0],"parents":[2147483647,0,0,1,1,2,2,3,3,4,4,5,5,6,6,9,9,10,10,11,11,12,12,13,13,14,14,16,16,18,18,19,19,20,20,21,21,22,22,23,23,24,24,28,28,31,31,35,35,36,36,37,37,39,39,40,40,41,41,42,42],"right_children":[2,4,6,8,10,12,14,-1,-1,16,18,20,22,24,26,-1,28,-1,30,32,34,36,38,40,42,-1,-1,-1,44,-1,-1,46,-1,-1,-1,48,50,52,-1,54,56,58,60,-1,-1,-1,-1,-1,-1,-1,-1,-1,-1,-1,-1,-1,-1,-1,-1,-1,-1],"split_conditions":[1.48177005E-5,5.6541858E-6,9.3379145E-5,1.5054115E-5,1.9971455E-6,1E0,5.5456244E-6,1.6641951E0,5.4897696E-2,2.0658203E-4,6.879662E-5,2.8681696E-5,5.9773043E-5,1.7668818E-4,3.535115E-3,-2.574607E-1,6.54095E-4,2.9033976E-2,8.40815E-6,2.2639912E-5,2.5130716E-5,3.865064E-5,3.5737876E-3,1.0710337E-4,6.411728E-3,-3.564877E-1,4.3117943E-1,1.6727027E-1,1.4938359E-3,6.3420564E-1,1.7642862E-1,1.1588924E-2,2.1270658E-1,-2.5232754E0,-2.1248733E-1,3.0060624E-5,4.4865563E-5,4.1659852E-5,3.9469397E-1,1.2895855E-4,1.0428456E-4,4.1265753E-3,4.646289E-3,-1.8266048E-1,4.9531188E-2,-3.0812818E-1,-6.907778E-2,6.031755E-3,-2.7474353E-1,6.609982E-1,9.782268E-2,-3.515045E-2,-2.6721406E-1,-2.307522E-1,2.529553E-1,1.7891356E0,3.090607E-1,-1.224213E-2,-4.1013065E-1,1.2584106E0,5.029321E-2],"split_indices":[0,3,1,1,1,5,2,0,0,4,4,1,0,0,0,0,4,0,1,1,4,1,0,4,1,0,0,0,3,0,0,0,0,0,0,0,0,3,0,1,0,0,0,0,0,0,0,0,0,0,0,0,0,0,0,0,0,0,0,0,0],"split_type":[0,0,0,0,0,0,0,0,0,0,0,0,0,0,0,0,0,0,0,0,0,0,0,0,0,0,0,0,0,0,0,0,0,0,0,0,0,0,0,0,0,0,0,0,0,0,0,0,0,0,0,0,0,0,0,0,0,0,0,0,0],"sum_hessian":[1.5761545E3,1.9759956E1,1.5563947E3,4.0605955E0,1.5699362E1,1.10229965E2,1.4461647E3,2.8896084E0,1.1709869E0,1.1365591E1,4.3337703E0,2.0600435E1,8.9629524E1,1.4117655E3,3.43991E1,4.9663553E0,6.399236E0,1.2919917E0,3.0417786E0,1.7564222E1,3.0362134E0,2.6313793E1,6.3315735E1,5.603659E1,1.355729E3,3.240084E1,1.9982593E0,1.5658655E0,4.8333707E0,1.5635492E0,1.4782293E0,1.6550611E1,1.0136112E0,1.1221757E0,1.9140377E0,1.6042294E1,1.0271499E1,6.1724678E1,1.5910562E0,3.8694283E1,1.7342306E1,1.1946445E3,1.6108446E2,1.5478271E0,3.2855434E0,1.3938567E1,2.6120434E0,7.496806E0,8.545487E0,3.9349427E0,6.336556E0,8.022327E0,5.370235E1,9.226538E0,2.9467745E1,1.8693023E0,1.5473004E1,1.1262546E3,6.838985E1,6.58363E0,1.5450082E2],"tree_param":{"num_deleted":"0","num_feature":"7","num_nodes":"61","size_leaf_vector":"1"}},{"base_weights":[-5.7483107E-2,-4.058643E-2,-9.498249E-1,-5.6471124E-2,7.9223466E-1,4.0096596E-1,-3.4955722E-1,-4.1415755E-2,-1.2694634E0,-2.7398908E0,1.3610182E0,8.424144E-2,-1.7275724E-1,9.005728E-2,-1.4020545E0,-6.1255466E-2,-1.0838475E0,2.7134207E-1,5.5285925E-1,-1.2369837E-2,3.2905912E-1,-1.0248858E0,-1.4162195E-1,-2.982462E-1,-1.7673851E0,2.9013144E-2,-2.820975E-1,1.000292E0,5.9799597E-2,-9.277972E-3,-3.19414E-1,1.3736561E-2,-7.26541E-2,-2.1332589E-1,-6.354824E-1],"categories":[],"categories_nodes":[],"categories_segments":[],"categories_sizes":[],"default_left":[0,0,0,0,0,0,0,0,0,0,0,0,0,0,0,0,0,0,0,0,0,0,0,0,0,0,0,0,0,0,0,0,0,0,0],"id":20,"left_children":[1,3,5,7,9,-1,-1,11,13,15,17,19,21,-1,23,-1,-1,-1,-1,25,27,29,31,-1,33,-1,-1,-1,-1,-1,-1,-1,-1,-1,-1],"loss_changes":[2.3384005E1,2.0227623E1,1.5750467E1,2.7304352E1,6.1229095E1,0E0,0E0,2.4451862E1,4.2360573E0,8.7837715E0,3.9030685E0,1.7918018E1,1.9071394E1,0E0,7.8816986E-1,0E0,0E0,0E0,0E0,5.515985E1,8.290195E1,9.71447E-1,1.3201686E1,0E0,1.3567238E0,0E0,0E0,0E0,0E0,0E0,0E0,0E0,0E0,0E0,0E0],"parents":[2147483647,0,0,1,1,2,2,3,3,4,4,7,7,8,8,9,9,10,10,11,11,12,12,14,14,19,19,20,20,21,21,22,22,24,24],"right_children":[2,4,6,8,10,-1,-1,12,14,16,18,20,22,-1,24,-1,-1,-1,-1,26,28,30,32,-1,34,-1,-1,-1,-1,-1,-1,-1,-1,-1,-1],"split_conditions":[5.5456244E-6,1.215483E-2,1E0,7.7852304E-3,1E0,4.0096596E-1,-3.4955722E-1,5.5558264E-4,1.2587052E-6,1.7240051E-2,5.750365E-2,2.887898E-3,1E0,9.005728E-2,1.9929162E-3,-6.1255466E-2,-1.0838475E0,2.7134207E-1,5.5285925E-1,1.8200018E-3,2.1372838E-3,8.6409267E-4,1.021524E-3,-2.982462E-1,8.177026E-3,2.9013144E-2,-2.820975E-1,1.000292E0,5.9799597E-2,-9.277972E-3,-3.19414E-1,1.3736561E-2,-7.26541E-2,-2.1332589E-1,-6.354824E-1],"split_indices":[2,1,5,0,5,0,0,3,1,0,0,1,5,0,1,0,0,0,0,0,0,4,0,0,0,0,0,0,0,0,0,0,0,0,0],"split_type":[0,0,0,0,0,0,0,0,0,0,0,0,0,0,0,0,0,0,0,0,0,0,0,0,0,0,0,0,0,0,0,0,0,0,0],"sum_hessian":[1.5524661E3,1.5246422E3,2.782393E1,1.4970211E3,2.7621023E1,1.9470963E0,2.5876833E1,1.4796897E3,1.7331408E1,3.3015304E0,2.4319492E1,7.5639197E2,7.232977E2,1.2515179E0,1.607989E1,1.1615007E0,2.1400297E0,1.3964941E1,1.0354551E1,5.430429E2,2.1334906E2,2.4371355E1,6.989264E2,9.3554945E0,6.7243943E0,4.8672464E2,5.6318275E1,7.8063107E0,2.0554276E2,1.007369E0,2.3363987E1,2.4425444E2,4.5467197E2,2.4314396E0,4.292955E0],"tree_param":{"num_deleted":"0","num_feature":"7","num_nodes":"35","size_leaf_vector":"1"}},{"base_weights":[-4.7748826E-2,-3.491684E-2,-8.863081E-1,-6.904669E-2,2.654103E-1,-1.1533034E0,5.213361E-1,-9.650453E-3,-9.931284E-1,6.0232115E0,9.969049E-2,-6.146791E-1,-3.734765E-1,-2.6472637E-2,9.7602636E-1,-1.145806E0,-9.0737474E-1,3.300441E0,7.8605425E-1,-2.622114E0,1.7368652E-1,-2.2902368E-1,-1.4590416E-3,-9.230525E-3,-4.0683758E-1,5.6757885E-1,4.939502E-1,1.1955765E0,-9.8143846E-1,-2.6284254E-1,6.085537E-1,8.903251E-2,-1.1519588E0,-3.4208184E-1,3.1540564E-1,-1.6813437E-2,1.0666541E-1,-3.2003086E-2,4.1633454E-1,7.480395E-1,-1.6266671E-1,-1.623343E-1,-3.5518968E-1,7.14103E-1,6.1807536E-2],"categories":[],"categories_nodes":[],"categories_segments":[],"categories_sizes":[],"default_left":[0,0,0,0,0,0,0,0,0,0,0,0,0,0,0,0,0,0,0,0,0,0,0,0,0,0,0,0,0,0,0,0,0,0,0,0,0,0,0,0,0,0,0,0,0],"id":21,"left_children":[1,3,5,7,9,11,-1,13,15,17,19,21,-1,23,25,-1,27,-1,29,31,33,-1,-1,35,-1,-1,37,39,41,-1,-1,-1,-1,-1,43,-1,-1,-1,-1,-1,-1,-1,-1,-1,-1],"loss_changes":[1.637829E1,1.5424516E1,1.8078535E1,7.411208E1,1.459461E2,2.9206276E-1,0E0,2.1082233E1,1.629853E1,1.0293776E2,3.0726976E1,4.5793903E-1,0E0,2.863486E1,8.485868E0,0E0,1.3705063E1,0E0,8.308834E0,1.5500305E1,2.778203E1,0E0,0E0,2.1102638E1,0E0,0E0,8.37894E0,8.542661E0,6.3393555E0,0E0,0E0,0E0,0E0,0E0,2.9709805E1,0E0,0E0,0E0,0E0,0E0,0E0,0E0,0E0,0E0,0E0],"parents":[2147483647,0,0,1,1,2,2,3,3,4,4,5,5,7,7,8,8,9,9,10,10,11,11,13,13,14,14,16,16,18,18,19,19,20,20,23,23,26,26,27,27,28,28,34,34],"right_children":[2,4,6,8,10,12,-1,14,16,18,20,22,-1,24,26,-1,28,-1,30,32,34,-1,-1,36,-1,-1,38,40,42,-1,-1,-1,-1,-1,44,-1,-1,-1,-1,-1,-1,-1,-1,-1,-1],"split_conditions":[5.5456244E-6,6.411728E-3,3.2523986E-2,3.970067E-3,4.646289E-3,6.0435305E-3,5.213361E-1,5.763374E-3,6.9485564E-4,7.882155E-4,1E0,9.2474953E-4,-3.734765E-1,3.7376073E-3,3.8267642E-3,-1.145806E0,6.37744E-7,3.300441E0,3.1192224E-3,1.7240051E-2,7.056241E-3,-2.2902368E-1,-1.4590416E-3,3.7639388E-3,-4.0683758E-1,5.6757885E-1,6.0435305E-3,4.247947E-3,4.1265753E-3,-2.6284254E-1,6.085537E-1,8.903251E-2,-1.1519588E0,-3.4208184E-1,4.80682E-3,-1.6813437E-2,1.0666541E-1,-3.2003086E-2,4.1633454E-1,7.480395E-1,-1.6266671E-1,-1.623343E-1,-3.5518968E-1,7.14103E-1,6.1807536E-2],"split_indices":[2,1,2,0,0,1,0,1,4,3,5,0,0,0,0,0,1,0,3,0,1,0,0,1,0,0,1,3,0,0,0,0,0,0,0,0,0,0,0,0,0,0,0,0,0],"split_type":[0,0,0,0,0,0,0,0,0,0,0,0,0,0,0,0,0,0,0,0,0,0,0,0,0,0,0,0,0,0,0,0,0,0,0,0,0,0,0,0,0,0,0,0,0],"sum_hessian":[1.5239683E3,1.5020253E3,2.1942986E1,1.3494418E3,1.5258348E2,2.0425259E1,1.5177261E0,1.268893E3,8.054886E1,3.27991E0,1.4930357E2,4.0898924E0,1.6335367E1,1.2485574E3,2.033553E1,1.0898998E0,7.945896E1,1.1172422E0,2.162668E0,3.040186E0,1.4626338E2,3.0854757E0,1.0044167E0,1.2335682E3,1.4989208E1,6.0039663E0,1.4331562E1,2.188095E0,7.727087E1,1.0511891E0,1.1114788E0,1.117612E0,1.9225739E0,1.3553658E1,1.3270973E2,1.0940143E3,1.395539E2,9.098383E0,5.2331796E0,1.0036618E0,1.1844333E0,2.5500587E1,5.177028E1,5.631604E0,1.27078125E2],"tree_param":{"num_deleted":"0","num_feature":"7","num_nodes":"45","size_leaf_vector":"1"}},{"base_weights":[-3.5221063E-2,5.5866694E-1,-4.9814608E-2,-2.312278E-1,1.012683E0,-7.787539E-1,-1.6473228E-2,1.6373211E-1,-3.6656117E-1,1.1634402E0,-1.7148374E-1,-9.2266196E-1,8.4921576E-2,2.2134581E-1,-5.2578807E-2,-2.3973384E-1,-9.924518E-2,9.739854E-1,7.247714E-1,-7.528199E-3,-6.699618E-2,-3.3256203E-1,-7.399982E-1,1.2622299E0,-5.7865584E-1,5.4867525E-2,9.6318483E-1,-9.509245E-1,-1.6056875E-2,1.483911E-1,-2.3817718E-1,1.128047E0,-1.8132363E-1,-8.923042E-2,-8.477024E-1,1.0247039E0,-2.0087521E-1,-2.4504343E-1,-2.2764717E-1,3.123504E-1,-4.8718002E-1,1.4085788E0,-3.253289E-1,3.1823684E-2,-2.9773268E-1,1.5221407E0,-2.8447079E-2,-1.4175612E-1,-5.015757E-3,3.8451394E-1,-9.360318E-2,4.1484892E-1,-2.3196195E-1,-2.2773668E-2,-2.6414663E-1,-1.7941304E-1,6.2036697E-2,-5.571715E-2,1.9892447E-1,-2.9439676E-1,7.148944E-2,6.657102E-1,2.026515E-1,5.509379E-1,2.3442257E-2,-1.2331396E-2,2.8183812E-1],"categories":[],"categories_nodes":[],"categories_segments":[],"categories_sizes":[],"default_left":[0,0,0,0,0,0,0,0,0,0,0,0,0,0,0,0,0,0,0,0,0,0,0,0,0,0,0,0,0,0,0,0,0,0,0,0,0,0,0,0,0,0,0,0,0,0,0,0,0,0,0,0,0,0,0,0,0,0,0,0,0,0,0,0,0,0,0],"id":22,"left_children":[1,3,5,7,9,11,13,-1,15,17,19,21,23,25,27,-1,29,31,-1,-1,-1,-1,33,35,37,39,41,43,45,-1,47,49,-1,51,53,-1,-1,55,-1,57,59,61,-1,-1,-1,63,65,-1,-1,-1,-1,-1,-1,-1,-1,-1,-1,-1,-1,-1,-1,-1,-1,-1,-1,-1,-1],"loss_changes":[1.3023177E1,1.3160155E1,3.557708E1,1.6690174E0,4.318657E0,8.0364685E0,1.2044422E1,0E0,1.3655288E0,2.534155E0,2.078323E-2,1.0460205E0,8.590094E0,2.2782455E1,3.9928253E1,0E0,8.4922767E-1,5.4395905E0,0E0,0E0,0E0,0E0,2.07835E0,1.8681248E1,2.4199724E-1,2.1376614E1,3.2379066E1,2.191719E0,2.2359001E1,0E0,3.9996085E-1,4.4217377E0,0E0,6.5883656E0,5.9739494E-1,0E0,0E0,7.574512E-1,0E0,1.823991E1,1.7930498E1,1.5267147E1,0E0,0E0,0E0,4.1114044E0,1.42811365E1,0E0,0E0,0E0,0E0,0E0,0E0,0E0,0E0,0E0,0E0,0E0,0E0,0E0,0E0,0E0,0E0,0E0,0E0,0E0,0E0],"parents":[2147483647,0,0,1,1,2,2,3,3,4,4,5,5,6,6,8,8,9,9,10,10,11,11,12,12,13,13,14,14,16,16,17,17,22,22,23,23,24,24,25,25,26,26,27,27,28,28,30,30,31,31,33,33,34,34,37,37,39,39,40,40,41,41,45,45,46,46],"right_children":[2,4,6,8,10,12,14,-1,16,18,20,22,24,26,28,-1,30,32,-1,-1,-1,-1,34,36,38,40,42,44,46,-1,48,50,-1,52,54,-1,-1,56,-1,58,60,62,-1,-1,-1,64,66,-1,-1,-1,-1,-1,-1,-1,-1,-1,-1,-1,-1,-1,-1,-1,-1,-1,-1,-1,-1],"split_conditions":[3.0060624E-5,6.37744E-7,4.347081E-5,1.4329585E-5,3.3700897E-3,2.396149E-3,3.0524543E-4,1.6373211E-1,2.0658203E-4,2.2489363E-3,1.1647218E-5,2.4866994E-4,7.445816E-4,3.5782473E-4,4.647643E-4,-2.3973384E-1,3.532546E-4,1.1456256E-3,7.247714E-1,-7.528199E-3,-6.699618E-2,-3.3256203E-1,4.1659852E-5,1.7621873E-6,3.0735836E-3,1.9097021E-4,5.5456244E-6,7.664676E-5,3.3346182E-4,1.483911E-1,1.4938359E-3,4.347081E-5,-1.8132363E-1,2.9705443E-6,2.7710007E-4,1.0247039E0,-2.0087521E-1,1.7130577E-3,-2.2764717E-1,1.3562129E-4,3.14777E-4,2.628941E-4,-3.253289E-1,3.1823684E-2,-2.9773268E-1,2.1347292E-3,2.6006257E-2,-1.4175612E-1,-5.015757E-3,3.8451394E-1,-9.360318E-2,4.1484892E-1,-2.3196195E-1,-2.2773668E-2,-2.6414663E-1,-1.7941304E-1,6.2036697E-2,-5.571715E-2,1.9892447E-1,-2.9439676E-1,7.148944E-2,6.657102E-1,2.026515E-1,5.509379E-1,2.3442257E-2,-1.2331396E-2,2.8183812E-1],"split_indices":[0,1,1,3,4,0,0,0,4,3,1,0,3,1,1,0,3,3,0,0,0,0,3,1,3,0,2,1,0,0,3,1,0,1,0,0,0,3,0,1,1,0,0,0,0,4,0,0,0,0,0,0,0,0,0,0,0,0,0,0,0,0,0,0,0,0,0],"split_type":[0,0,0,0,0,0,0,0,0,0,0,0,0,0,0,0,0,0,0,0,0,0,0,0,0,0,0,0,0,0,0,0,0,0,0,0,0,0,0,0,0,0,0,0,0,0,0,0,0,0,0,0,0,0,0,0,0,0,0,0,0,0,0,0,0,0,0],"sum_hessian":[1.4984172E3,3.5043213E1,1.463374E3,1.2969556E1,2.2073656E1,6.3028614E1,1.4003453E3,1.4739912E0,1.1495565E1,1.9596336E1,2.4773207E0,5.3968014E1,9.060601E0,1.8390111E2,1.2164443E3,3.6309035E0,7.8646617E0,1.8565647E1,1.030689E0,1.0359222E0,1.4413984E0,2.423639E1,2.9731625E1,2.9408443E0,6.119757E0,1.5107245E2,3.2828655E1,4.6544014E1,1.1699003E3,1.0056413E0,6.85902E0,1.7174618E1,1.3910297E0,4.4815826E0,2.5250044E1,1.0274241E0,1.9134202E0,2.973636E0,3.1461213E0,1.0270797E2,4.836448E1,2.721991E1,5.608745E0,1.7003232E0,4.4843693E1,8.374599E0,1.1615256E3,2.7817445E0,4.0772758E0,1.5618003E1,1.5566143E0,1.097589E0,3.3839934E0,1.1640337E0,2.408601E1,1.487731E0,1.4859049E0,4.2633907E1,6.0074062E1,2.8559313E1,1.9805164E1,1.1964946E1,1.5254963E1,6.6543465E0,1.7202535E0,1.1474773E3,1.4048323E1],"tree_param":{"num_deleted":"0","num_feature":"7","num_nodes":"67","size_leaf_vector":"1"}},{"base_weights":[-3.0395953E-2,1.727011E-2,-1.7073254E-1,1.2459986E-2,6.3054067E-1,-1.336564E0,-1.058382E-1,2.7109882E-2,-1.0043691E0,-8.970167E-1,-3.0635593E0,-1.5431961E-1,3.6371833E-1,-9.483848E-2,1.092762E-1,-3.2793918E-1,6.141265E-3,-3.6775658E-1,-3.0232677E-1,-2.4711959E-1,-1.2616186E0,-7.0462203E-1,-9.811237E-2,2.5247727E-2,-8.11455E-1,1.0525105E0,1.7220108E-2,1.3895877E-1,-2.2047818E-1,1.5621293E-1,-7.8516984E-1,-1.3266218E-1,3.530774E-1,-9.611969E-3,1.8742827E-1,4.8677403E-2,-2.8963503E-1,1.9572422E-1,1.0685241E0,-2.843715E-1,2.5389183E-2,-2.7127534E-1,2.1411352E-2,-4.0012817E-3,-1.21437475E-1,1.4372352E-1,-2.4750169E-1],"categories":[],"categories_nodes":[],"categories_segments":[],"categories_sizes":[],"default_left":[0,0,0,0,0,0,0,0,0,0,0,0,0,0,0,0,0,0,0,0,0,0,0,0,0,0,0,0,0,0,0,0,0,0,0,0,0,0,0,0,0,0,0,0,0,0,0],"id":23,"left_children":[1,3,5,7,-1,9,11,13,15,17,19,21,-1,23,25,-1,-1,27,-1,-1,-1,29,31,33,35,37,39,-1,-1,-1,41,43,45,-1,-1,-1,-1,-1,-1,-1,-1,-1,-1,-1,-1,-1,-1],"loss_changes":[9.898046E0,1.1054548E1,2.823996E1,1.6466455E1,0E0,1.2201946E1,2.2967346E1,1.0920866E1,1.4505529E0,6.323757E-1,5.6958237E0,1.059237E1,0E0,3.77868E1,5.650926E1,0E0,0E0,1.7242548E0,0E0,0E0,0E0,3.5456085E0,4.94016E0,1.2962541E1,9.605801E0,5.5773933E1,3.873464E1,0E0,0E0,0E0,3.1469097E0,9.486238E0,3.750074E0,0E0,0E0,0E0,0E0,0E0,0E0,0E0,0E0,0E0,0E0,0E0,0E0,0E0,0E0],"parents":[2147483647,0,0,1,1,2,2,3,3,5,5,6,6,7,7,8,8,9,9,10,10,11,11,13,13,14,14,17,17,21,21,22,22,23,23,24,24,25,25,26,26,30,30,31,31,32,32],"right_children":[2,4,6,8,-1,10,12,14,16,18,20,22,-1,24,26,-1,-1,28,-1,-1,-1,30,32,34,36,38,40,-1,-1,-1,42,44,46,-1,-1,-1,-1,-1,-1,-1,-1,-1,-1,-1,-1,-1,-1],"split_conditions":[3.097516E-3,1.0206811E-2,1E0,5.5456244E-6,6.3054067E-1,5.2477117E-3,1.1588924E-2,1.0774995E-3,3.535115E-3,4.7128187E-3,9.093254E-3,2.643968E-3,3.6371833E-1,6.9195847E-4,9.5261505E-4,-3.2793918E-1,6.141265E-3,2.2828274E-3,-3.0232677E-1,-2.4711959E-1,-1.2616186E0,7.252995E-4,8.475097E-3,8.480484E-4,6.37744E-7,1.3667021E-3,1.485826E-3,1.3895877E-1,-2.2047818E-1,1.5621293E-1,1.0807813E-2,2.6652736E-3,5.5456244E-6,-9.611969E-3,1.8742827E-1,4.8677403E-2,-2.8963503E-1,1.9572422E-1,1.0685241E0,-2.843715E-1,2.5389183E-2,-2.7127534E-1,2.1411352E-2,-4.0012817E-3,-1.21437475E-1,1.4372352E-1,-2.4750169E-1],"split_indices":[4,0,5,2,0,1,0,1,0,4,4,3,0,0,0,0,0,3,0,0,0,1,1,1,1,1,1,0,0,0,1,0,2,0,0,0,0,0,0,0,0,0,0,0,0,0,0],"split_type":[0,0,0,0,0,0,0,0,0,0,0,0,0,0,0,0,0,0,0,0,0,0,0,0,0,0,0,0,0,0,0,0,0,0,0,0,0,0,0,0,0,0,0,0,0,0,0],"sum_hessian":[1.478244E3,1.1041057E3,3.7413837E2,1.1025675E3,1.5382321E0,1.8694494E1,3.5544388E2,1.0878674E3,1.4700036E1,1.6112915E1,2.5815792E0,3.4368683E2,1.175704E1,4.378587E2,6.500087E2,1.3467022E1,1.2330139E0,3.5356712E0,1.2577245E1,1.4529264E0,1.1286527E0,3.07815E1,3.1290533E2,3.7584213E2,6.2016556E1,5.6869843E1,5.931389E2,1.0033772E0,2.532294E0,1.5615687E0,2.921993E1,2.913047E2,2.1600653E1,3.4392435E2,3.1917791E1,8.461394E0,5.355516E1,5.013573E1,6.7341127E0,3.7871136E1,5.5526776E2,2.560454E1,3.6153922E0,2.0323726E2,8.806742E1,2.0049604E1,1.5510491E0],"tree_param":{"num_deleted":"0","num_feature":"7","num_nodes":"47","size_leaf_vector":"1"}},{"base_weights":[-2.8153816E-2,3.7524652E-1,-4.1981418E-2,-2.172146E-1,5.9167266E-1,-7.6638293E-1,-1.2196577E-2,-1.557275E-2,-2.215638E-1,6.874628E-1,-1.8743373E-1,-9.3110067E-1,6.270776E-2,4.9160786E-2,-1.22810505E-1,1.7605568E-1,-1.6499712E-1,9.616198E-1,4.5631453E-1,-4.97007E-1,1.4337666E-1,-1.5148615E0,-7.7262324E-1,4.1898584E-1,-3.2940286E-1,1.6325576E-2,1.061251E0,-1.0632846E0,6.1571635E-2,-2.1359621E-1,1.1150238E-1,1.371749E0,2.7650917E-1,-2.7546096E-1,7.924757E-1,-9.511943E-3,-1.9784641E-1,-2.70236E-1,-6.435665E-1,-9.435092E-2,-2.65205E-1,-2.3864659E-2,-5.780435E-1,5.8144443E-2,-9.6806777E-1,2.1796308E0,-3.161128E-1,-1.3365945E0,-9.628118E-1,1.1810132E0,2.124812E-2,9.781971E-2,-9.4487645E-2,4.4795796E-1,1.5092757E-1,-5.624587E-2,2.2596936E-1,1.1745356E-1,5.0339514E-1,4.384692E-1,-1.9421779E-1,1.4913717E-1,-2.0446311E-1,-2.1929653E-1,-3.347279E-3,1.2748747E-2,1.2826751E0,-1.3778669E-1,-2.9835588E-1,3.8534108E-1,1.0045699E0,-1.5936276E-1,-2.9567298E-1,1.00247994E-1,-3.1332303E-2],"categories":[],"categories_nodes":[],"categories_segments":[],"categories_sizes":[],"default_left":[0,0,0,0,0,0,0,0,0,0,0,0,0,0,0,0,0,0,0,0,0,0,0,0,0,0,0,0,0,0,0,0,0,0,0,0,0,0,0,0,0,0,0,0,0,0,0,0,0,0,0,0,0,0,0,0,0,0,0,0,0,0,0,0,0,0,0,0,0,0,0,0,0,0,0],"id":24,"left_children":[1,3,5,7,9,11,13,15,-1,17,19,21,23,25,27,-1,29,31,33,35,-1,37,39,-1,41,43,45,47,49,-1,51,53,55,-1,57,-1,-1,-1,-1,59,-1,61,63,65,67,69,-1,-1,71,-1,73,-1,-1,-1,-1,-1,-1,-1,-1,-1,-1,-1,-1,-1,-1,-1,-1,-1,-1,-1,-1,-1,-1,-1,-1],"loss_changes":[8.157711E0,6.3442383E0,3.0459774E1,1.428838E0,2.7986813E0,7.6724854E0,9.218754E0,1.0781626E0,0E0,1.593586E0,1.2061453E0,3.1384773E0,5.7834496E0,2.902151E1,8.409731E1,0E0,1.5185479E0,3.489213E0,9.647047E0,2.587846E-1,0E0,1.5141258E0,2.8384972E0,0E0,6.4522254E-1,3.4939445E1,6.7207794E1,2.2800262E1,6.337425E1,0E0,7.601615E-1,1.3068295E-1,1.5586512E0,0E0,5.040653E0,0E0,0E0,0E0,0E0,6.6037116E0,0E0,2.0298038E0,4.0278292E-1,5.3525814E1,8.716583E-3,1.4823074E1,0E0,0E0,2.4752045E-1,0E0,1.5881972E1,0E0,0E0,0E0,0E0,0E0,0E0,0E0,0E0,0E0,0E0,0E0,0E0,0E0,0E0,0E0,0E0,0E0,0E0,0E0,0E0,0E0,0E0,0E0,0E0],"parents":[2147483647,0,0,1,1,2,2,3,3,4,4,5,5,6,6,7,7,9,9,10,10,11,11,12,12,13,13,14,14,16,16,17,17,18,18,19,19,21,21,22,22,24,24,25,25,26,26,27,27,28,28,30,30,31,31,32,32,34,34,39,39,41,41,42,42,43,43,44,44,45,45,48,48,50,50],"right_children":[2,4,6,8,10,12,14,16,-1,18,20,22,24,26,28,-1,30,32,34,36,-1,38,40,-1,42,44,46,48,50,-1,52,54,56,-1,58,-1,-1,-1,-1,60,-1,62,64,66,68,70,-1,-1,72,-1,74,-1,-1,-1,-1,-1,-1,-1,-1,-1,-1,-1,-1,-1,-1,-1,-1,-1,-1,-1,-1,-1,-1,-1,-1],"split_conditions":[4.4865563E-5,6.37744E-7,7.010149E-5,1.48177005E-5,3.3700897E-3,2.396149E-3,2.252761E-3,1.4329585E-5,-2.215638E-1,1.48177005E-5,1.2327236E-2,1E0,1.6417047E-3,3.125449E-3,3.514221E-3,1.7605568E-1,2.0658203E-4,8.211617E-5,2.2639912E-5,4.754056E-3,1.4337666E-1,2.8681696E-5,4.1659852E-5,4.1898584E-1,1.7392879E-3,2.0074332E-3,5.5456244E-6,2.660709E-4,2.3544352E-3,-2.1359621E-1,3.7755216E-3,1.0707386E-5,7.7360205E-4,-2.7546096E-1,6.9485564E-4,-9.511943E-3,-1.9784641E-1,-2.70236E-1,-6.435665E-1,3.2055025E-6,-2.65205E-1,6.37744E-7,5.084038E-3,3.010673E-3,2.0256077E-3,3.344E-3,-3.161128E-1,-1.3365945E0,2.2732015E-3,1.1810132E0,3.2518287E-3,9.781971E-2,-9.4487645E-2,4.4795796E-1,1.5092757E-1,-5.624587E-2,2.2596936E-1,1.1745356E-1,5.0339514E-1,4.384692E-1,-1.9421779E-1,1.4913717E-1,-2.0446311E-1,-2.1929653E-1,-3.347279E-3,1.2748747E-2,1.2826751E0,-1.3778669E-1,-2.9835588E-1,3.8534108E-1,1.0045699E0,-1.5936276E-1,-2.9567298E-1,1.00247994E-1,-3.1332303E-2],"split_indices":[0,1,1,0,4,0,0,3,0,0,4,5,4,1,1,0,4,3,1,3,0,1,3,0,3,0,2,4,0,0,4,1,3,0,4,0,0,0,0,1,0,1,0,1,0,1,0,0,0,0,0,0,0,0,0,0,0,0,0,0,0,0,0,0,0,0,0,0,0,0,0,0,0,0,0],"split_type":[0,0,0,0,0,0,0,0,0,0,0,0,0,0,0,0,0,0,0,0,0,0,0,0,0,0,0,0,0,0,0,0,0,0,0,0,0,0,0,0,0,0,0,0,0,0,0,0,0,0,0,0,0,0,0,0,0,0,0,0,0,0,0,0,0,0,0,0,0,0,0,0,0,0,0],"sum_hessian":[1.4586399E3,4.7475426E1,1.4111644E3,1.2701567E1,3.4773857E1,5.4753986E1,1.3564104E3,9.901651E0,2.7999148E0,3.1071308E1,3.702551E0,4.55762E1,9.177788E0,8.728163E2,4.8359418E2,1.3860757E0,8.515576E0,1.2767744E1,1.8303564E1,2.6995428E0,1.0030081E0,7.903683E0,3.7672516E1,1.5029929E0,7.6747947E0,8.4637354E2,2.6442736E1,7.848756E1,4.0510663E2,2.3304052E0,6.185171E0,7.359738E0,5.408006E0,3.2565465E0,1.5047017E1,1.0080129E0,1.69153E0,5.2339525E0,2.669731E0,5.5747824E0,3.2097733E1,3.9351394E0,3.739655E0,8.127858E2,3.3587723E1,1.7276459E1,9.166277E0,1.0110296E0,7.747653E1,3.1768749E0,4.0192975E2,4.2714915E0,1.9136794E0,5.8262253E0,1.5335125E0,3.0480475E0,2.3599586E0,1.1349859E1,3.697158E0,1.0311092E0,4.543673E0,2.3319669E0,1.6031725E0,2.7171042E0,1.0225508E0,8.107875E2,1.9983145E0,2.567482E0,3.102024E1,1.0972587E1,6.303873E0,5.100949E0,7.237558E1,1.14705E2,2.8722473E2],"tree_param":{"num_deleted":"0","num_feature":"7","num_nodes":"75","size_leaf_vector":"1"}},{"base_weights":[-2.9725598E-2,-3.2717884E-2,5.097345E-1,-2.489338E-2,-1.0116506E0,-5.310084E-2,2.3350787E-1,-4.1979882E-1,-3.3701253E-1,-1.9469721E-2,-1.0813655E0,7.6355886E0,6.181783E-2,-1.7742568E-1,-6.4137793E-4,3.548582E-1,-4.3751825E-2,5.4242754E-1,-1.24744E0,3.1539507E0,4.6018472E-1,-1.3383058E0,1.7112412E-1,-7.079527E-2,2.5521567E-1,-2.6390213E-1,-3.252769E-3,-3.8527627E-2,4.1267952E-1,-6.386827E-1,-3.446665E-1,-5.323927E-1,-2.6968303E-1,4.1689315E-1,2.608537E-2],"categories":[],"categories_nodes":[],"categories_segments":[],"categories_sizes":[],"default_left":[0,0,0,0,0,0,0,0,0,0,0,0,0,0,0,0,0,0,0,0,0,0,0,0,0,0,0,0,0,0,0,0,0,0,0],"id":25,"left_children":[1,3,-1,5,7,9,11,13,-1,15,17,19,21,-1,-1,23,25,27,29,-1,-1,31,33,-1,-1,-1,-1,-1,-1,-1,-1,-1,-1,-1,-1],"loss_changes":[7.5955696E0,1.1127089E1,0E0,1.0548091E1,2.9015827E-1,4.5073833E1,1.8055493E2,2.4430609E-1,0E0,1.1502159E1,1.1808849E1,4.0425842E1,2.1689089E1,0E0,0E0,2.2786922E1,3.2661858E1,2.7070832E0,8.338661E-1,0E0,0E0,3.7311745E-1,1.3310783E1,0E0,0E0,0E0,0E0,0E0,0E0,0E0,0E0,0E0,0E0,0E0,0E0],"parents":[2147483647,0,0,1,1,3,3,4,4,5,5,6,6,7,7,9,9,10,10,11,11,12,12,15,15,16,16,17,17,18,18,21,21,22,22],"right_children":[2,4,-1,6,8,10,12,14,-1,16,18,20,22,-1,-1,24,26,28,30,-1,-1,32,34,-1,-1,-1,-1,-1,-1,-1,-1,-1,-1,-1,-1],"split_conditions":[3.2523986E-2,5.5456244E-6,5.097345E-1,6.411728E-3,6.0435305E-3,4.1265753E-3,4.646289E-3,5.8248546E-4,-3.3701253E-1,2.5130716E-5,6.37744E-7,1.959708E-3,7.056241E-3,-1.7742568E-1,-6.4137793E-4,1.20591845E-4,1E0,1E0,1.07999E-3,3.1539507E0,4.6018472E-1,4.1659852E-5,4.80682E-3,-7.079527E-2,2.5521567E-1,-2.6390213E-1,-3.252769E-3,-3.8527627E-2,4.1267952E-1,-6.386827E-1,-3.446665E-1,-5.323927E-1,-2.6968303E-1,4.1689315E-1,2.608537E-2],"split_indices":[2,2,0,1,1,0,0,0,0,4,1,3,1,0,0,1,5,5,4,0,0,3,0,0,0,0,0,0,0,0,0,0,0,0,0],"split_type":[0,0,0,0,0,0,0,0,0,0,0,0,0,0,0,0,0,0,0,0,0,0,0,0,0,0,0,0,0,0,0,0,0,0,0],"sum_hessian":[1.4565117E3,1.4549745E3,1.537202E0,1.4444545E3,1.0519941E1,1.3030105E3,1.4144403E2,2.4259756E0,8.093966E0,1.2627297E3,4.0280758E1,2.220906E0,1.3922313E2,1.4245787E0,1.0013969E0,7.609231E1,1.1866375E3,3.527219E0,3.675354E1,1.0178657E0,1.2030404E0,9.267713E0,1.2995541E2,3.495993E1,4.113238E1,4.3972404E1,1.142665E3,2.4225156E0,1.1047034E0,1.6241271E0,3.5129414E1,3.1250525E0,6.14266E0,7.3948774E0,1.2256053E2],"tree_param":{"num_deleted":"0","num_feature":"7","num_nodes":"35","size_leaf_vector":"1"}},{"base_weights":[-2.0483438E-2,-2.6492264E-2,6.782329E-1,-1.9082356E-2,-9.0702164E-1,-3.101733E-1,1.3246273E0,4.5555606E-3,-2.3352577E-1,2.2562217E-2,-3.1329054E-1,1.5933428E0,-1.06728904E-1,-3.5213467E-2,1.8150728E0,-3.3100653E0,-5.2014254E-2,7.5923705E-1,3.2951376E-1,-6.220101E-3,-1.0975528E0,7.5547785E-1,3.377323E0,-1.285119E0,1.618575E-2,-5.1776185E-3,3.485208E-1,-1.9789292E-2,-3.3972117E-1,1.4388588E-1,3.4581056E-1,1.7760037E0,3.7013426E-1,-1.1249836E-1,5.0191883E-2],"categories":[],"categories_nodes":[],"categories_segments":[],"categories_sizes":[],"default_left":[0,0,0,0,0,0,0,0,0,0,0,0,0,0,0,0,0,0,0,0,0,0,0,0,0,0,0,0,0,0,0,0,0,0,0],"id":26,"left_children":[1,3,5,7,9,-1,11,13,15,-1,-1,17,-1,19,21,-1,23,-1,-1,25,27,29,31,-1,33,-1,-1,-1,-1,-1,-1,-1,-1,-1,-1],"loss_changes":[6.0199847E0,9.236902E0,1.4901226E1,7.1358414E0,1.6716404E0,0E0,4.7726707E0,9.141829E1,2.7341357E2,0E0,0E0,1.0309238E0,0E0,3.8262463E1,4.2621735E1,0E0,4.0029503E1,0E0,0E0,1.5626248E1,1.1118279E0,1.370081E0,5.1235825E1,0E0,8.176962E0,0E0,0E0,0E0,0E0,0E0,0E0,0E0,0E0,0E0,0E0],"parents":[2147483647,0,0,1,1,2,2,3,3,4,4,6,6,7,7,8,8,11,11,13,13,14,14,16,16,19,19,20,20,21,21,22,22,24,24],"right_children":[2,4,6,8,10,-1,12,14,16,-1,-1,18,-1,20,22,-1,24,-1,-1,26,28,30,32,-1,34,-1,-1,-1,-1,-1,-1,-1,-1,-1,-1],"split_conditions":[2.6006257E-2,5.5456244E-6,1.3983124E-2,4.571218E-3,1E0,-3.101733E-1,6.1418028E-3,6.0435305E-3,4.646289E-3,2.2562217E-2,-3.1329054E-1,3.7813818E-4,-1.06728904E-1,3.8732414E-3,4.1265753E-3,-3.3100653E0,1.1299796E-3,7.5923705E-1,3.2951376E-1,5.763374E-3,6.37744E-7,9.719077E-4,8.922498E-4,-1.285119E0,7.544853E-3,-5.1776185E-3,3.485208E-1,-1.9789292E-2,-3.3972117E-1,1.4388588E-1,3.4581056E-1,1.7760037E0,3.7013426E-1,-1.1249836E-1,5.0191883E-2],"split_indices":[0,2,1,0,5,0,3,1,0,0,0,3,0,0,0,0,4,0,0,1,1,3,3,0,1,0,0,0,0,0,0,0,0,0,0],"split_type":[0,0,0,0,0,0,0,0,0,0,0,0,0,0,0,0,0,0,0,0,0,0,0,0,0,0,0,0,0,0,0,0,0,0,0],"sum_hessian":[1.4285742E3,1.4173474E3,1.122683E1,1.4065327E3,1.0814707E1,2.9125848E0,8.314245E0,1.2677666E3,1.3876608E2,1.3816026E0,9.4331045E0,7.2126527E0,1.1015921E0,1.2414774E3,2.62892E1,1.305428E0,1.3746066E2,1.0710435E0,6.141609E0,1.2094742E3,3.200312E1,1.6548664E1,9.740536E0,1.1998577E0,1.362608E2,1.1991263E3,1.0348002E1,1.1403913E0,3.0862728E1,1.1069034E1,5.4796305E0,3.6495802E0,6.0909553E0,3.755836E1,9.870244E1],"tree_param":{"num_deleted":"0","num_feature":"7","num_nodes":"35","size_leaf_vector":"1"}},{"base_weights":[-1.4219285E-2,-4.0291943E-2,2.1410987E-1,-1.0985731E-2,-1.2471378E0,6.1695104E0,-7.8992136E-2,3.995312E-2,-1.1578227E-1,5.350489E-1,-1.5054289E0,-2.8101516E-1,6.931193E0,-2.5538628E0,1.2010445E-1,-3.1316694E-2,1.6990583E0,-8.952307E-1,8.578812E-2,3.9996824E-1,-9.904909E-2,-2.0168383E0,-3.217915E-1,-3.5343971E0,-3.1921217E-1,4.5554295E-2,1.2874078E0,4.786998E-2,-4.4350994E-1,4.7388344E0,1.0149708E0,-1.2229993E-2,-9.521074E-1,1.0009667E0,-3.0323746E-2,-1.5350881E-1,-2.189348E0,-1.5501019E0,-1.715488E0,8.4604335E-1,-6.0182728E-2,1.6066955E0,-8.7424174E-2,-9.787562E-4,5.7419676E-1,-2.938799E-1,1.9892429E-3,1.7215341E0,7.143665E-1,-2.774779E-1,5.437783E-1,4.406226E-1,-1.8115611E-1,-1.3391644E-1,-3.1614158E-1,2.0184216E-1,8.840595E-1,-2.7737877E-1,2.9517416E-2,-3.6112165E-1,-7.5934255E-1,-6.4953756E-1,-1.9522263E-1,1.08044885E-1,3.4293234E-1,-3.6905262E-1,2.297845E-2,7.594891E-1,2.966416E-1],"categories":[],"categories_nodes":[],"categories_segments":[],"categories_sizes":[],"default_left":[0,0,0,0,0,0,0,0,0,0,0,0,0,0,0,0,0,0,0,0,0,0,0,0,0,0,0,0,0,0,0,0,0,0,0,0,0,0,0,0,0,0,0,0,0,0,0,0,0,0,0,0,0,0,0,0,0,0,0,0,0,0,0,0,0,0,0,0,0],"id":27,"left_children":[1,3,5,7,9,11,13,15,17,19,21,-1,-1,23,25,27,29,31,33,-1,-1,35,-1,37,-1,39,41,43,45,47,49,51,53,55,57,-1,59,-1,61,63,65,67,-1,-1,-1,-1,-1,-1,-1,-1,-1,-1,-1,-1,-1,-1,-1,-1,-1,-1,-1,-1,-1,-1,-1,-1,-1,-1,-1],"loss_changes":[8.435534E0,4.4949974E1,2.5399452E2,6.6356277E0,1.4675354E1,8.429745E2,6.899756E1,9.8978745E1,6.395213E1,3.5836577E0,3.7194557E0,0E0,0E0,1.1467941E1,1.125269E1,2.6236046E1,6.688302E1,4.188057E0,3.44524E1,0E0,0E0,1.7480621E0,0E0,8.526543E0,0E0,1.0480021E1,4.3831854E0,6.437796E1,3.1263044E1,6.1917114E-1,4.71914E1,6.20831E0,3.5694199E0,2.1325333E1,3.3291294E1,0E0,1.8917084E-1,0E0,6.339283E-1,1.6730337E0,1.7660946E1,1.2763367E0,0E0,0E0,0E0,0E0,0E0,0E0,0E0,0E0,0E0,0E0,0E0,0E0,0E0,0E0,0E0,0E0,0E0,0E0,0E0,0E0,0E0,0E0,0E0,0E0,0E0,0E0,0E0],"parents":[2147483647,0,0,1,1,2,2,3,3,4,4,5,5,6,6,7,7,8,8,9,9,10,10,13,13,14,14,15,15,16,16,17,17,18,18,21,21,23,23,25,25,26,26,27,27,28,28,29,29,30,30,31,31,32,32,33,33,34,34,36,36,38,38,39,39,40,40,41,41],"right_children":[2,4,6,8,10,12,14,16,18,20,22,-1,-1,24,26,28,30,32,34,-1,-1,36,-1,38,-1,40,42,44,46,48,50,52,54,56,58,-1,60,-1,62,64,66,68,-1,-1,-1,-1,-1,-1,-1,-1,-1,-1,-1,-1,-1,-1,-1,-1,-1,-1,-1,-1,-1,-1,-1,-1,-1,-1,-1],"split_conditions":[6.411728E-3,4.1265753E-3,4.571218E-3,1.8200018E-3,6.37744E-7,2.2732015E-3,7.056241E-3,2.389391E-3,2.887898E-3,7.445816E-4,1.8101529E-3,-2.8101516E-1,6.931193E0,1.959708E-3,2.6006257E-2,1.2634071E-3,1.625398E-3,6.37744E-7,2.1748214E-3,3.9996824E-1,-9.904909E-2,4.1825203E-3,-3.217915E-1,4.7233417E-3,-3.1921217E-1,4.894054E-3,6.1418028E-3,1.7689675E-3,1.9929162E-3,1.5939691E-3,2.5087001E-3,1.4884548E-3,1.8703867E-3,3.2494024E-3,3.3927644E-3,-1.5350881E-1,5.763374E-3,-1.5501019E0,4.1659852E-5,1.552415E-3,7.544853E-3,5.04052E-4,-8.7424174E-2,-9.787562E-4,5.7419676E-1,-2.938799E-1,1.9892429E-3,1.7215341E0,7.143665E-1,-2.774779E-1,5.437783E-1,4.406226E-1,-1.8115611E-1,-1.3391644E-1,-3.1614158E-1,2.0184216E-1,8.840595E-1,-2.7737877E-1,2.9517416E-2,-3.6112165E-1,-7.5934255E-1,-6.4953756E-1,-1.9522263E-1,1.08044885E-1,3.4293234E-1,-3.6905262E-1,2.297845E-2,7.594891E-1,2.966416E-1],"split_indices":[1,0,0,0,1,0,1,1,1,3,4,0,0,3,0,0,0,1,0,0,0,0,0,0,0,0,3,1,1,0,1,4,0,1,1,0,1,0,3,4,1,3,0,0,0,0,0,0,0,0,0,0,0,0,0,0,0,0,0,0,0,0,0,0,0,0,0,0,0],"split_type":[0,0,0,0,0,0,0,0,0,0,0,0,0,0,0,0,0,0,0,0,0,0,0,0,0,0,0,0,0,0,0,0,0,0,0,0,0,0,0,0,0,0,0,0,0,0,0,0,0,0,0,0,0,0,0,0,0,0,0,0,0,0,0,0,0,0,0,0,0],"sum_hessian":[1.414538E3,1.2703066E3,1.4423138E2,1.2411759E3,2.9130754E1,5.825092E0,1.384063E2,8.356211E2,4.0555478E2,3.5518422E0,2.557891E1,4.768688E0,1.0564039E0,9.424743E0,1.2898155E2,8.0214465E2,3.3476425E1,8.2622444E1,3.229323E2,1.5661281E0,1.9857141E0,1.0046883E1,1.5532029E1,4.8562293E0,4.568514E0,1.2221527E2,6.766287E0,6.736192E2,1.285255E2,5.0608892E0,2.8415537E1,5.073428E0,7.754902E1,3.550059E1,2.8743173E2,1.4409369E0,8.605946E0,1.5891392E0,3.26709E0,1.3442973E1,1.0877229E2,5.6134205E0,1.1528664E0,6.566256E2,1.6993586E1,5.8125465E1,7.040003E1,2.5469797E0,2.5139098E0,8.232851E0,2.0182686E1,1.0250154E0,4.048413E0,1.3886098E1,6.3662918E1,3.152921E1,3.9713826E0,3.5387474E1,2.5204427E2,3.3802779E0,5.2256675E0,1.5704359E0,1.6966542E0,5.939837E0,7.503136E0,1.0548306E1,9.822399E1,1.0077214E0,4.605699E0],"tree_param":{"num_deleted":"0","num_feature":"7","num_nodes":"69","size_leaf_vector":"1"}},{"base_weights":[-5.0896775E-2,-1.5306712E-2,-1.6856894E0,-3.9608352E-2,2.0674922E-1,-1.9400342E0,7.694244E-1,-1.7233755E-2,-1.1073686E0,7.3790092E0,-1.0030529E-1,-3.0608237E0,-3.0091292E-1,2.6801884E-1,-3.4950886E-2,3.6265233E-1,-1.4024174E0,2.6061E0,3.7485778E0,-2.443492E0,6.520292E-2,-2.7104932E-1,-1.266425E0,5.5308414E-1,-7.8336847E-1,-8.027601E-1,-1.0981064E-2,-1.9453043E-1,3.1817588E-1,-1.7813652E0,-3.1114185E-1,9.541611E-1,1.7901811E-1,-1.3464789E0,-3.512494E-1,-5.9157896E-1,1.1319707E-1,-9.818701E-3,3.5385963E-1,-2.4504524E-1,-4.4002242E-2,-2.5547045E-1,7.462462E-2,1.1746133E-1,-8.672324E-3,-1.8088952E-1,1.06881365E-1,-1.3328928E-1,-5.848364E-1,4.10737E-3,2.8216463E-1],"categories":[],"categories_nodes":[],"categories_segments":[],"categories_sizes":[],"default_left":[0,0,0,0,0,0,0,0,0,0,0,0,0,0,0,0,0,0,0,0,0,0,0,0,0,0,0,0,0,0,0,0,0,0,0,0,0,0,0,0,0,0,0,0,0,0,0,0,0,0,0],"id":28,"left_children":[1,3,5,7,9,11,-1,13,15,17,19,21,-1,23,25,27,29,31,-1,33,35,-1,-1,37,39,41,43,45,-1,47,-1,-1,-1,-1,-1,-1,49,-1,-1,-1,-1,-1,-1,-1,-1,-1,-1,-1,-1,-1,-1],"loss_changes":[8.2995995E1,7.5497117E0,3.783354E1,3.0095427E1,3.046946E2,2.7644066E1,0E0,6.2541957E0,1.1722927E1,1.0612836E2,5.187033E1,2.830909E1,0E0,2.2124866E1,2.1418915E1,2.196033E0,1.1616364E0,2.9521885E0,0E0,1.7704731E1,1.2494968E1,0E0,0E0,2.1148489E1,2.177763E-1,2.0200462E0,8.165553E0,1.0449877E0,0E0,1.2186928E0,0E0,0E0,0E0,0E0,0E0,0E0,1.0160401E1,0E0,0E0,0E0,0E0,0E0,0E0,0E0,0E0,0E0,0E0,0E0,0E0,0E0,0E0],"parents":[2147483647,0,0,1,1,2,2,3,3,4,4,5,5,7,7,8,8,9,9,10,10,11,11,13,13,14,14,15,15,16,16,17,17,19,19,20,20,23,23,24,24,25,25,26,26,27,27,29,29,36,36],"right_children":[2,4,6,8,10,12,-1,14,16,18,20,22,-1,24,26,28,30,32,-1,34,36,-1,-1,38,40,42,44,46,-1,48,-1,-1,-1,-1,-1,-1,50,-1,-1,-1,-1,-1,-1,-1,-1,-1,-1,-1,-1,-1,-1],"split_conditions":[5.5456244E-6,6.411728E-3,3.535115E-3,4.1265753E-3,4.571218E-3,2.5130716E-5,7.694244E-1,2.5130716E-5,6.37744E-7,1.1468326E-3,7.056241E-3,2.2732015E-3,-3.0091292E-1,5.6541858E-6,1E0,1E0,1.7122588E-3,4.3641245E-3,3.7485778E0,7.882155E-4,1E0,-2.7104932E-1,-1.266425E0,1.2895855E-4,2.389391E-3,3.387187E-3,1.0428456E-4,1.1588924E-2,3.1817588E-1,4.1825203E-3,-3.1114185E-1,9.541611E-1,1.7901811E-1,-1.3464789E0,-3.512494E-1,-5.9157896E-1,1.215483E-2,-9.818701E-3,3.5385963E-1,-2.4504524E-1,-4.4002242E-2,-2.5547045E-1,7.462462E-2,1.1746133E-1,-8.672324E-3,-1.8088952E-1,1.06881365E-1,-1.3328928E-1,-5.848364E-1,4.10737E-3,2.8216463E-1],"split_indices":[2,1,0,0,0,4,0,4,1,4,1,0,0,3,5,5,4,0,0,3,5,0,0,1,1,0,0,0,0,0,0,0,0,0,0,0,1,0,0,0,0,0,0,0,0,0,0,0,0,0,0],"split_type":[0,0,0,0,0,0,0,0,0,0,0,0,0,0,0,0,0,0,0,0,0,0,0,0,0,0,0,0,0,